{
  "name": "3x3_no_bias",
  "input": [
    -1.2113045454025269,
    0.6303586363792419,
    -1.4713038206100464,
    -1.335198998451233,
    -0.4896668791770935,
    0.13174213469028473,
    0.3294970691204071,
    0.32642850279808044,
    -0.48055049777030945,
    1.1031601428985596,
    2.548506021499634,
    0.30063536763191223,
    -0.543218195438385,
    -1.0841294527053833,
    1.461236596107483,
    -1.627929925918579,
    -1.4800711870193481,
    -1.0630654096603394,
    0.3630143702030182,
    0.39946672320365906,
    0.14565789699554443,
    -0.7344775199890137,
    -0.9872555732727051,
    1.8512190580368042,
    -1.343733549118042,
    0.8535267114639282,
    0.8811348676681519,
    -0.6521903872489929,
    0.5809689164161682,
    0.3560802638530731,
    0.016046009957790375,
    0.40185678005218506,
    1.9538428783416748,
    -0.4460289478302002,
    1.7102055549621582,
    0.8944460153579712,
    -0.5458323359489441,
    -0.6418041586875916,
    -2.052621364593506,
    0.3467080891132355,
    -0.6968749761581421,
    -0.004699554294347763,
    -0.31362661719322205,
    -1.2601573467254639,
    0.6976583003997803,
    0.3720381557941437,
    -0.2606133818626404,
    -0.7613316774368286,
    0.12767551839351654,
    0.1522265374660492,
    -1.108310341835022,
    -0.6451759338378906,
    -1.787100911140442,
    0.6950071454048157,
    -0.5825005173683167,
    -0.1925562471151352,
    1.2356798648834229,
    -0.8008244037628174,
    -0.2808338701725006,
    0.8700663447380066,
    -1.7343509197235107,
    -1.4346975088119507,
    -0.06284128874540329,
    -0.5595194697380066,
    1.0409702062606812,
    0.13654087483882904,
    1.8124992847442627,
    -0.4949057102203369,
    0.8339433073997498,
    -0.3967777490615845,
    1.3932565450668335,
    0.30117112398147583,
    -0.2569783329963684,
    -1.3998596668243408,
    0.7614684700965881,
    0.8895881772041321,
    -0.39031508564949036,
    0.8299045562744141,
    0.2927452623844147,
    -0.6837154626846313,
    -0.22316287457942963,
    -0.7009411454200745,
    -0.32141855359077454,
    -0.6802502274513245,
    -1.3113828897476196,
    -1.517195463180542,
    0.628166913986206,
    1.130101203918457,
    0.4194768965244293,
    0.6914551854133606,
    -0.8920359015464783,
    0.2698323130607605,
    -2.215027332305908,
    0.8058067560195923,
    0.515622079372406,
    -0.04202817752957344,
    -2.835059881210327,
    0.3415207266807556,
    -0.5858295559883118,
    0.6763635277748108,
    -0.4266972541809082,
    1.095131516456604,
    1.24285888671875,
    0.29533126950263977,
    -0.4089600443840027,
    -0.6816136240959167,
    -0.7103907465934753,
    -0.11576969176530838,
    -1.6770185232162476,
    1.2439217567443848,
    0.8127436637878418,
    -0.8698902726173401,
    -0.7160350680351257,
    -0.5617383718490601,
    1.6957937479019165,
    -0.37110382318496704,
    0.004497246816754341,
    0.14678774774074554,
    -0.2776415944099426,
    0.30988121032714844,
    -0.7398537397384644,
    0.6421766877174377,
    -0.025866953656077385,
    -0.9036566019058228,
    0.5111561417579651,
    0.8201687335968018,
    1.0510227680206299,
    -0.8726540803909302,
    -0.8036245703697205,
    -0.18871736526489258,
    1.7296340465545654,
    0.10785476118326187,
    -0.6363272070884705,
    0.051877863705158234,
    2.0020792484283447,
    -0.6008415818214417,
    0.3244907259941101,
    1.1994246244430542,
    -1.1465080976486206,
    -0.930880606174469,
    -0.9179942011833191,
    -0.7409375309944153,
    -1.0485632419586182,
    -1.3647245168685913,
    0.34897133708000183,
    -0.5539128184318542,
    -0.44666504859924316,
    1.761216402053833,
    1.0009013414382935,
    -0.5218213200569153,
    1.4748759269714355,
    -0.683250367641449,
    -0.08347616344690323,
    0.6856113076210022,
    -0.7607735395431519,
    -3.1045682430267334,
    -1.3223274946212769,
    0.4691530764102936,
    -0.5240707993507385,
    -0.37024804949760437,
    -0.396274209022522,
    -0.11807964742183685,
    -0.9285410642623901,
    0.3364262282848358,
    1.0358314514160156,
    0.9010142683982849,
    1.1425833702087402,
    0.35128119587898254,
    0.9535094499588013,
    0.19746844470500946,
    0.9650968313217163,
    1.206891655921936,
    -0.24858546257019043,
    -0.18955327570438385,
    2.187729835510254,
    0.8639532923698425,
    -0.8377084732055664,
    -0.1815066933631897,
    -0.8690583109855652,
    -0.22122421860694885,
    -1.7606292963027954,
    0.4089822471141815,
    -0.0856793001294136,
    -0.7367804646492004,
    1.0395435094833374,
    -1.4201972484588623,
    -0.18942177295684814,
    0.1413252055644989,
    1.8332973718643188,
    -0.8938490152359009,
    -2.038654088973999,
    -0.3018512725830078,
    2.340254068374634,
    -0.3196105659008026,
    -0.07043234258890152,
    1.07694411277771,
    1.2296370267868042,
    -1.1910252571105957,
    0.5368098616600037,
    0.38171884417533875,
    0.11935987323522568,
    -1.2444063425064087,
    -2.616344690322876,
    -0.12180309742689133,
    2.1887552738189697,
    0.635825514793396,
    0.26070621609687805,
    -0.7051732540130615,
    -0.6477441191673279,
    -0.6159670352935791,
    -0.3911866843700409,
    0.4065183401107788,
    -0.8920907974243164,
    -0.7648483514785767,
    1.1567045450210571,
    -0.526573657989502,
    -0.8577473759651184,
    -0.3036068081855774,
    -0.9479755163192749,
    -1.4285157918930054,
    -2.1135435104370117,
    -0.348458468914032,
    0.32237374782562256,
    0.2012726366519928,
    0.668929398059845,
    -0.9794584512710571,
    0.5163013339042664,
    0.3683689832687378,
    -0.48178985714912415,
    1.8635306358337402,
    0.2784000039100647,
    0.20611505210399628,
    -0.2671833038330078,
    -0.7403000593185425,
    0.4732394516468048,
    1.1079567670822144,
    0.03737957030534744,
    0.2849864363670349,
    -0.6962018609046936,
    -0.7011089324951172,
    -0.09794935584068298,
    1.0882699489593506,
    1.1207935810089111,
    0.5870119333267212,
    0.14620384573936462,
    -0.3251506984233856,
    -0.08854928612709045,
    -0.08556124567985535,
    0.44840317964553833,
    0.6625872254371643,
    1.8697978258132935,
    -0.4419604241847992,
    0.35399165749549866,
    -0.8321272134780884,
    0.5189470052719116,
    1.3856616020202637
  ],
  "weight": [
    0.16675063967704773,
    -0.11281082034111023,
    -0.15917538106441498,
    -0.09789299964904785,
    -0.11806079745292664,
    0.1857406347990036,
    -0.011900191195309162,
    0.009293070994317532,
    -0.21684513986110687,
    -0.21387654542922974,
    -0.09374777227640152,
    0.0174355898052454,
    -0.09482647478580475,
    -0.012916716746985912,
    0.21790313720703125,
    -0.2144213616847992,
    -0.12553517520427704,
    0.08885221928358078,
    -0.03134472295641899,
    -0.16799262166023254,
    0.14388644695281982,
    -0.046510957181453705,
    0.10965429991483688,
    0.14414165914058685,
    -0.21724534034729004,
    0.03104570508003235,
    0.038624972105026245,
    0.1672353446483612,
    -0.20872844755649567,
    -0.20266573131084442,
    -0.01238024327903986,
    -0.21979904174804688,
    0.05324040353298187,
    0.10828270018100739,
    -0.21566927433013916,
    -0.1704699546098709,
    -0.05575016513466835,
    0.027738863602280617,
    0.010201307944953442,
    -0.15649692714214325,
    0.16099447011947632,
    0.15784446895122528,
    -0.21185249090194702,
    -0.16630589962005615,
    -0.174952432513237,
    0.15844014286994934,
    0.22499744594097137,
    0.1790783703327179,
    0.14545981585979462,
    0.018142644315958023,
    0.18938101828098297,
    0.19316072762012482,
    0.049747779965400696,
    0.2014128565788269,
    -0.11523047089576721,
    -0.16843603551387787,
    0.08828946948051453,
    -0.18519969284534454,
    0.009470059536397457,
    -0.10257003456354141,
    0.14101174473762512,
    -0.04507622495293617,
    -0.0592997744679451,
    0.1451299488544464,
    -0.18207857012748718,
    -0.02575579844415188,
    0.11435294151306152,
    -0.0406227633357048,
    -0.03395822271704674,
    0.18128260970115662,
    -0.04991498962044716,
    0.06796395778656006,
    0.03932896628975868,
    -0.09356330335140228,
    0.2209145575761795,
    0.11970126628875732,
    0.07999567687511444,
    0.20830924808979034,
    0.2234763652086258,
    -0.1335810422897339,
    -0.07357769459486008,
    -0.10347014665603638,
    -0.16626690328121185,
    -0.11973781883716583,
    -0.1200496256351471,
    -0.22459423542022705,
    -0.18387119472026825,
    -0.0748927891254425,
    -0.14069929718971252,
    -0.14236107468605042,
    -0.18028917908668518,
    -0.08770115673542023,
    -0.09702622890472412,
    -0.07630728930234909,
    -0.09103494882583618,
    0.11367106437683105,
    -0.20845435559749603,
    -0.1839672327041626,
    0.09032581001520157,
    -0.17304982244968414,
    0.227676659822464,
    -0.06746254861354828,
    0.08727426826953888,
    -0.2086278349161148,
    -0.04601997509598732,
    -0.1794554442167282,
    -0.15612563490867615,
    0.07708537578582764,
    0.0199339147657156,
    -0.1316951960325241,
    0.11212269961833954,
    -0.12550868093967438,
    -0.16183853149414062,
    -0.050705552101135254,
    -0.15504932403564453,
    -0.0015986862126737833,
    0.18683622777462006,
    0.12550804018974304,
    -0.024855120107531548,
    -0.12583664059638977,
    0.007772103883326054,
    0.11160839349031448,
    -0.19220612943172455,
    -0.16933707892894745,
    -0.19077369570732117,
    0.20883920788764954,
    0.012317612767219543,
    0.11204084753990173,
    0.03423582762479782,
    -0.105183444917202,
    0.0052146608941257,
    0.0034185871481895447,
    -0.21958234906196594,
    -0.13400860130786896,
    0.09058681130409241,
    -0.059165071696043015,
    0.039694491773843765,
    0.1658613085746765,
    -0.15831491351127625,
    0.03779628127813339,
    0.010564838536083698,
    0.08158264309167862,
    0.23263147473335266,
    0.17016448080539703,
    -0.116427943110466,
    -0.08908557146787643,
    -0.12922586500644684,
    0.2302522212266922,
    0.030788442119956017,
    -0.06641337275505066,
    0.16503632068634033,
    -0.13184498250484467,
    -0.15788298845291138,
    -0.17417822778224945,
    0.1243467777967453,
    0.20386922359466553,
    0.008069351315498352,
    -0.21953566372394562,
    -0.015152662992477417,
    -0.020139196887612343,
    -0.2238701730966568,
    0.09528402239084244,
    0.22510084509849548,
    0.17827282845973969,
    -0.18010099232196808,
    0.18122535943984985,
    -0.16773509979248047,
    -0.06249430775642395,
    0.087445467710495,
    -0.1803724467754364,
    0.11717770993709564,
    -0.051804039627313614,
    -0.14735578000545502,
    0.03090108558535576,
    0.04873046651482582,
    0.15146079659461975,
    0.13758768141269684,
    0.07815355062484741,
    -0.025148490443825722,
    -0.12624405324459076,
    -0.11858384311199188,
    0.04804723709821701,
    -0.11697835475206375,
    -0.023389505222439766,
    -0.117451973259449,
    -0.17339403927326202,
    0.05864874646067619,
    0.17765362560749054,
    -0.12337815761566162,
    -0.08978023380041122,
    0.03853921964764595,
    0.21510149538516998,
    -0.04155656695365906,
    0.004352055490016937,
    -0.22886721789836884,
    -0.12401150912046432,
    0.2010650783777237,
    -0.10046987980604172,
    0.15702974796295166,
    0.034762974828481674,
    0.05134132504463196,
    -0.1956593245267868,
    0.17655542492866516,
    -0.037266749888658524,
    0.08624706417322159,
    0.0973648652434349,
    0.045215755701065063,
    0.09917111694812775,
    0.08765372633934021,
    -0.03536912798881531,
    0.0765714943408966,
    -0.18309400975704193,
    -0.023662477731704712,
    0.2188541442155838,
    0.08898458629846573,
    0.032852765172719955,
    0.038073018193244934,
    0.10488644987344742,
    0.07556039094924927,
    0.08892251551151276,
    0.20702897012233734,
    -0.1162966713309288,
    -0.20070652663707733,
    0.1051415205001831,
    0.12089938670396805,
    0.048919763416051865,
    0.03952489420771599,
    0.23309193551540375,
    -0.1461525708436966,
    0.19860617816448212,
    0.14927363395690918,
    0.14365671575069427,
    -0.14901871979236603,
    -0.01634586788713932,
    0.10522826015949249,
    0.2187328189611435,
    0.08063085377216339,
    0.05438927188515663,
    0.05235099419951439,
    0.06935297697782516,
    0.10502225160598755,
    0.03519795835018158,
    0.09320567548274994,
    0.08494231104850769,
    -0.05789181590080261,
    -0.14435425400733948,
    0.02031174674630165,
    0.14726907014846802,
    -0.010694706812500954,
    0.1185944601893425,
    0.22695940732955933,
    0.0726354569196701,
    -0.11734654754400253,
    0.10075246542692184,
    0.1268889307975769,
    0.20352590084075928,
    0.1822846382856369,
    -0.17114634811878204,
    0.004050255753099918,
    -0.16505220532417297,
    -0.03056427650153637,
    -0.07484962791204453,
    -0.008948731236159801,
    0.14559458196163177,
    0.08853389322757721,
    0.20305564999580383,
    0.10616973787546158,
    0.10228022933006287,
    -0.15086309611797333,
    0.09159375727176666,
    0.11409376561641693,
    -0.08313673734664917,
    -0.15810240805149078,
    -0.0958516001701355,
    0.0978388786315918,
    0.15067583322525024,
    -0.02776901237666607,
    -0.10906624048948288,
    0.00036277197068557143,
    -0.1267436146736145,
    0.16766078770160675,
    0.14552117884159088,
    -0.030599258840084076,
    -0.17468565702438354,
    0.03213312104344368,
    -0.030833875760436058,
    -0.1436435729265213,
    0.2317318320274353
  ],
  "output": [
    -0.46333521604537964,
    0.7804767489433289,
    0.3576918840408325,
    -0.7685681581497192,
    -0.5417068004608154,
    0.7986415028572083,
    0.4542572796344757,
    -0.10006949305534363,
    0.11779303103685379,
    1.273270606994629,
    0.16423149406909943,
    -1.3351329565048218,
    -0.24020522832870483,
    1.006401777267456,
    -2.0655858516693115,
    -0.5291205048561096,
    0.19092890620231628,
    0.022857079282402992,
    1.12933349609375,
    -0.2453763335943222,
    0.5163588523864746,
    0.9976879954338074,
    0.016961634159088135,
    0.6356568336486816,
    1.6980208158493042,
    0.34512457251548767,
    -0.9849905967712402,
    -0.17087256908416748,
    1.2398380041122437,
    0.971493661403656,
    -1.346949815750122,
    -0.9312176704406738,
    0.08593934774398804,
    -0.24601764976978302,
    0.34229975938796997,
    0.3565256595611572,
    1.131675124168396,
    0.39530149102211,
    0.15582728385925293,
    -0.5251830816268921,
    0.13200871646404266,
    1.3106563091278076,
    -0.685041069984436,
    0.5329043865203857,
    0.28228768706321716,
    0.7412687540054321,
    -0.2762833535671234,
    -0.5305387377738953,
    0.14417895674705505,
    -0.48907434940338135,
    -0.7415013313293457,
    -0.08543354272842407,
    0.7382622957229614,
    0.4418846070766449,
    -0.7070366740226746,
    -0.11786916851997375,
    -0.36594268679618835,
    -0.42844852805137634,
    -0.20462511479854584,
    -0.19949333369731903,
    0.6198899745941162,
    0.007624086923897266,
    -0.40373483300209045,
    -0.18102502822875977,
    -0.707339346408844,
    0.2807697653770447,
    -1.2079830169677734,
    -0.7638698220252991,
    0.503061830997467,
    1.0250475406646729,
    0.3952368497848511,
    -0.14166194200515747,
    -0.035798508673906326,
    2.4969234466552734,
    -0.3961103558540344,
    -1.4830032587051392,
    0.06975856423377991,
    1.6845320463180542,
    -0.23917697370052338,
    0.49083128571510315,
    -0.46498116850852966,
    -0.49138110876083374,
    0.4338732063770294,
    -1.3235743045806885,
    -1.2964593172073364,
    -1.311800241470337,
    0.7513883113861084,
    0.7397766709327698,
    -0.564769446849823,
    -0.7920167446136475,
    -0.03486774116754532,
    -1.8842130899429321,
    0.48375794291496277,
    0.11131030321121216,
    0.7365323305130005,
    1.7451565265655518,
    0.567489743232727,
    -0.3701499402523041,
    0.2678394019603729,
    -0.29932305216789246,
    1.0171356201171875,
    -1.3870832920074463,
    0.2385285347700119,
    1.0676357746124268,
    -0.8612470030784607,
    -0.5107425451278687,
    -0.22244608402252197,
    0.6086264848709106,
    0.9321906566619873,
    -0.42301055788993835,
    0.40525585412979126,
    -0.10143580287694931,
    -0.3188436031341553,
    0.10302583128213882,
    -1.1274816989898682,
    0.06186385825276375,
    0.1117769330739975,
    2.5046234130859375,
    0.2630477547645569,
    -0.3998911380767822,
    0.15379725396633148,
    -0.8344017267227173,
    0.6675986647605896,
    0.30066418647766113,
    -0.17539407312870026,
    0.5426899790763855,
    -0.05409488454461098,
    0.6241245269775391,
    -0.4937695562839508,
    -1.0958172082901,
    -0.5921509861946106,
    0.28104186058044434,
    -0.1638088822364807,
    -0.09641578793525696,
    -1.0073378086090088,
    0.851028561592102,
    1.6984938383102417,
    -0.24876879155635834,
    0.47040483355522156,
    -0.4496156573295593,
    -0.6591695547103882,
    0.08857280015945435,
    -0.9777979850769043,
    -0.9699212908744812,
    0.5202500820159912,
    0.01881399005651474,
    -0.09040409326553345,
    2.3007545471191406,
    2.446413040161133,
    1.314563512802124,
    -0.7269264459609985,
    0.26267606019973755,
    0.07368399947881699,
    0.9769320487976074,
    0.09973083436489105,
    1.8431134223937988,
    0.9827638268470764,
    -0.8887634873390198,
    -0.28433817625045776,
    -1.9741219282150269,
    0.5683137774467468,
    1.4303206205368042,
    0.5222314596176147,
    1.0180591344833374,
    -0.3057611882686615,
    -0.763340175151825,
    -0.8079735040664673,
    -0.8133086562156677,
    0.9889938235282898,
    0.9579662084579468,
    0.066385418176651,
    -0.3741740584373474,
    -0.2913271486759186,
    -0.6262205839157104,
    -0.7118013501167297,
    -0.6279047727584839,
    0.000194339852896519,
    -0.5410543084144592,
    -0.8935487270355225,
    -0.4125351905822754,
    -0.14703278243541718,
    -1.1211613416671753,
    -0.4666840732097626,
    -0.14968596398830414,
    -0.19663450121879578,
    -0.03126673027873039,
    -0.06703825294971466,
    0.020282398909330368,
    -0.4202941954135895,
    -0.9430376887321472,
    -0.4122367799282074,
    0.00500155845656991,
    0.17898884415626526,
    -0.5366001725196838,
    -0.15260839462280273,
    -0.3478367030620575,
    0.9711235761642456,
    0.4624655246734619,
    -0.08152923732995987,
    -0.2067623883485794,
    -0.26260462403297424,
    -1.0871824026107788,
    0.325153112411499,
    0.6177098155021667,
    -1.1761244535446167,
    0.32351285219192505,
    1.1617366075515747,
    -0.3193064033985138,
    0.6655529141426086,
    -0.46045762300491333,
    -1.4540185928344727,
    -0.07651762664318085,
    0.7940627336502075,
    0.0928332656621933,
    -0.52180016040802,
    -0.16299332678318024,
    0.6731920838356018,
    0.6619629263877869,
    0.33335843682289124,
    0.5884048342704773,
    0.049708664417266846,
    0.33041706681251526,
    -0.12626589834690094,
    -0.5948230624198914,
    -0.9203541874885559,
    -0.3536340594291687,
    -0.6410956978797913,
    -0.6940218806266785,
    0.14424943923950195,
    0.2803632318973541,
    -0.9176522493362427,
    -0.7024793028831482,
    0.027681196108460426,
    0.961786687374115,
    0.2095654308795929,
    0.10485374182462692,
    0.3675321340560913,
    0.09861961007118225,
    0.45230716466903687,
    0.19941958785057068,
    0.24262388050556183,
    0.12078466266393661,
    1.3426159620285034,
    1.0593456029891968,
    -0.6383129954338074,
    -0.409870445728302,
    0.5691027045249939,
    1.3603852987289429,
    -0.17558416724205017,
    -0.3405243158340454,
    0.36860284209251404,
    -0.5295150876045227,
    0.16922779381275177,
    -0.11557672917842865,
    0.7854131460189819,
    0.0817231610417366,
    0.19676189124584198,
    -0.5643497705459595,
    -0.4823215901851654,
    0.12466862052679062,
    -0.020961226895451546,
    -0.6283984184265137,
    -0.6732854247093201,
    1.374161958694458,
    -0.26087653636932373,
    -0.6260731816291809,
    0.636076807975769,
    1.0126863718032837,
    0.9566904306411743,
    0.4035913646221161,
    -0.05513487011194229,
    0.05360862985253334,
    -0.583752453327179,
    -0.8728160262107849,
    0.804250180721283,
    -0.20544017851352692,
    0.33115512132644653,
    -0.08003585040569305,
    -1.0767464637756348,
    -0.6151023507118225,
    0.5803202986717224,
    -0.5729092359542847,
    -0.07194885611534119,
    -0.26153573393821716,
    0.21063010394573212,
    0.09200473874807358,
    0.6980645060539246,
    -0.1707092523574829,
    0.9991496801376343,
    0.4199349284172058,
    0.8015702962875366,
    -0.9117826223373413,
    -0.16234740614891052,
    0.8237276673316956,
    -0.7710456848144531,
    -0.45242539048194885,
    -0.7523634433746338,
    0.3862361013889313,
    -0.2982802987098694,
    -0.423222154378891,
    1.182823657989502,
    -0.07447949796915054,
    0.0416332371532917,
    0.5149955749511719,
    0.21156668663024902,
    0.9537827968597412,
    -0.035716187208890915,
    0.8582291603088379,
    0.5080968141555786,
    -0.9486100673675537,
    -0.12487286329269409,
    0.6342334151268005,
    0.014196868985891342,
    1.280189037322998,
    -0.16792286932468414,
    0.18685609102249146,
    -0.45786240696907043,
    -0.14708474278450012,
    0.15718945860862732,
    0.12312676012516022,
    -0.6264619827270508,
    -0.499603807926178,
    0.9645340442657471,
    -0.8685410022735596,
    -0.3004368245601654,
    0.06871528923511505,
    0.3554222881793976,
    -1.2355157136917114,
    0.14579732716083527,
    -0.08456645160913467,
    -0.7375771999359131,
    0.5855677127838135,
    0.3267643451690674,
    -0.117767333984375,
    0.10605482012033463,
    1.1857675313949585,
    0.004650205373764038,
    -0.006789073348045349,
    -0.22799605131149292,
    -1.021855354309082,
    -0.8015552759170532,
    -0.22396261990070343,
    -0.2699066400527954,
    -0.9847758412361145,
    -0.3988666534423828,
    0.3522784411907196,
    -0.49670785665512085,
    0.8474704027175903,
    0.3503499925136566,
    1.0041295289993286,
    0.1260923445224762,
    0.4838753938674927,
    -0.5224629044532776,
    0.07939253002405167,
    -0.8756744265556335,
    -0.47114574909210205,
    -0.7841727137565613,
    0.11391600221395493,
    0.4396369457244873,
    -0.6652757525444031,
    0.5016355514526367,
    -0.339457243680954,
    0.8350952863693237,
    0.1054484024643898,
    -0.8913117051124573,
    0.7869141101837158,
    0.9807141423225403,
    0.17691799998283386,
    -0.010442092083394527,
    0.16589544713497162,
    0.26998332142829895,
    1.0110934972763062,
    0.5664491653442383,
    0.7232987880706787,
    -0.4280388355255127,
    -0.3016273081302643,
    -0.2633989155292511,
    -0.03220460191369057,
    0.19434323906898499,
    0.36144793033599854,
    0.5165520906448364,
    -0.33014070987701416,
    -0.11581683158874512,
    0.1926746964454651,
    0.3998863101005554,
    0.5979333519935608,
    -0.7653540968894958,
    -1.369455099105835,
    0.38838720321655273,
    0.09326526522636414,
    0.6409854888916016,
    -0.5101646780967712,
    -1.1140373945236206,
    0.2765595316886902,
    0.7472288608551025,
    0.18162910640239716,
    -0.05713183432817459,
    0.1988811045885086,
    0.48130473494529724,
    0.08003441989421844,
    -0.6714455485343933,
    0.5170508623123169,
    -0.29860445857048035,
    -2.0574378967285156,
    -1.1451709270477295,
    -1.229150414466858,
    -0.14159181714057922,
    0.08001047372817993,
    0.10361801832914352,
    -1.4317667484283447,
    -0.015400068834424019,
    -0.9366226196289062,
    -0.7314727306365967,
    0.47282344102859497,
    0.7452824115753174,
    1.1508030891418457,
    0.19195875525474548,
    0.3427998125553131,
    0.28613418340682983,
    -0.04450928792357445,
    0.5674834251403809,
    0.40449172258377075,
    -0.4182994067668915,
    0.06585320085287094,
    0.008856384083628654,
    -0.455878347158432,
    0.04013555124402046,
    0.15017591416835785,
    0.24902084469795227,
    1.3426845073699951,
    0.1755807101726532,
    -0.2402929961681366,
    -0.014537503011524677,
    0.17206211388111115,
    0.8705325126647949,
    -0.26007580757141113,
    -0.8768681883811951,
    0.2994856536388397,
    0.5098152160644531,
    0.655185341835022,
    -0.17088823020458221,
    0.10839012265205383,
    -0.7386005520820618,
    -0.06643464416265488,
    -0.09542477875947952,
    -0.5647853016853333,
    -0.27448347210884094,
    -0.5768766403198242,
    -1.0132750272750854,
    0.1549045294523239,
    0.5518839359283447,
    -0.08445461839437485,
    -0.3386650085449219,
    0.5658433437347412,
    0.062334902584552765,
    0.6561932563781738,
    0.24373573064804077,
    -0.7418652176856995,
    0.471653014421463,
    0.9971574544906616,
    -0.41643333435058594,
    -0.3803669512271881,
    -0.04324651136994362,
    -0.2107408344745636,
    -0.3932262361049652,
    -1.1845532655715942,
    0.41581106185913086,
    0.2186497300863266,
    0.9312769174575806,
    -0.00784851610660553,
    -0.6124030351638794,
    -0.22985486686229706,
    -0.6507044434547424,
    -0.11203227192163467,
    -0.1689125895500183,
    -1.5462044477462769,
    0.5315871238708496,
    0.2531367242336273,
    0.6991525292396545,
    0.22683437168598175,
    -0.6540900468826294,
    0.17524078488349915,
    0.39750975370407104,
    0.07997988909482956,
    0.6177650094032288,
    0.14128267765045166,
    -0.29275718331336975,
    -0.033807072788476944,
    0.4892844557762146,
    0.21644724905490875,
    0.7619428634643555,
    -1.1226297616958618,
    -0.45695921778678894,
    0.7997760772705078,
    0.6399985551834106,
    0.05469835177063942,
    -0.7282497882843018,
    0.34077906608581543,
    -0.5090993642807007,
    -0.14198417961597443,
    -0.36499226093292236,
    0.3784679174423218,
    -0.6803736686706543,
    0.09350492060184479,
    0.3080177307128906,
    0.4593406319618225,
    -0.6462728381156921,
    0.49691370129585266,
    0.1656515896320343,
    -0.8430373072624207,
    -0.13812093436717987,
    -0.1756688952445984
  ],
  "input_shape": [
    4,
    8,
    8
  ],
  "weight_shape": [
    8,
    4,
    3,
    3
  ],
  "output_shape": [
    8,
    8,
    8
  ],
  "config": {
    "in_channels": 4,
    "out_channels": 8,
    "kernel_size": [
      3,
      3
    ],
    "stride": [
      1,
      1
    ],
    "padding": [
      1,
      1
    ],
    "dilation": [
      1,
      1
    ],
    "groups": 1,
    "bias": false
  }
}