{
  "name": "3x3_same_padding",
  "input": [
    -1.0408011674880981,
    0.9166041612625122,
    -1.3041906356811523,
    -1.1096783876419067,
    -1.2187780141830444,
    1.1675924062728882,
    -1.0573921203613281,
    -0.11883937567472458,
    -0.9078398942947388,
    0.34522223472595215,
    -0.5713335871696472,
    -0.2351086586713791,
    1.0076055526733398,
    -0.7528814673423767,
    -0.22499920427799225,
    -0.4326860308647156,
    -1.5071438550949097,
    -0.4585607945919037,
    -0.8480006456375122,
    0.5266043543815613,
    0.029916182160377502,
    -0.04983803257346153,
    1.0650779008865356,
    0.8860366940498352,
    0.4640183746814728,
    -0.4986324608325958,
    0.12886369228363037,
    2.7630667686462402,
    0.14047646522521973,
    1.1191015243530273,
    0.3152315616607666,
    1.7527765035629272,
    -0.7649639248847961,
    1.8298852443695068,
    -0.27840104699134827,
    -0.2719452679157257,
    -1.2944108247756958,
    -0.02431253157556057,
    -0.23535971343517303,
    -0.7087094783782959,
    1.1566312313079834,
    0.42960160970687866,
    -1.1873589754104614,
    -0.7467759251594543,
    -0.9319809079170227,
    -0.8578645586967468,
    -0.9647331237792969,
    -0.0991455465555191,
    -1.0189824104309082,
    0.31567901372909546,
    -1.6035629510879517,
    1.8493320941925049,
    0.04472726583480835,
    1.5852519273757935,
    -0.5912226438522339,
    1.1312177181243896,
    0.7562121748924255,
    -1.2022933959960938,
    -0.5833470225334167,
    -0.44068679213523865,
    -1.9791470766067505,
    0.7787133455276489,
    -0.7748500108718872,
    -0.13975095748901367,
    1.141386866569519,
    -0.635371744632721,
    -1.4702459573745728,
    -0.21338605880737305,
    -0.8706575632095337,
    1.6159113645553589,
    -0.23564793169498444,
    0.9443864226341248,
    2.113386631011963,
    -0.9754034876823425,
    0.17569366097450256,
    -0.13188815116882324,
    -0.27350300550460815,
    0.3355262577533722,
    0.18854673206806183,
    2.143237352371216,
    0.8527002334594727,
    0.09647636860609055,
    -0.06249098479747772,
    0.8268541097640991,
    0.5598673224449158,
    -0.7775934934616089,
    0.3339212238788605,
    0.17591367661952972,
    2.1108040809631348,
    1.0702455043792725,
    0.019540296867489815,
    1.121282935142517,
    -1.4873199462890625,
    -0.2043229192495346,
    -1.0466426610946655,
    -1.5772473812103271,
    0.10358445346355438,
    -0.3514097332954407,
    0.2421167939901352,
    0.6462650299072266,
    0.8729978799819946,
    -0.9275988936424255,
    0.17662756145000458,
    1.0224436521530151,
    -0.48255372047424316,
    -0.542116641998291,
    -0.5341827273368835,
    -0.6412885189056396,
    0.035191990435123444,
    -0.4765148460865021,
    -0.040874920785427094,
    1.1992886066436768,
    0.537361741065979,
    -0.19295911490917206,
    0.5936785936355591,
    0.720313549041748,
    0.5061110258102417,
    1.5191761255264282,
    -0.4896864593029022,
    0.9230629801750183,
    -0.6008040904998779,
    -1.1164305210113525,
    0.2577155530452728,
    -0.7225574254989624,
    -0.924393355846405,
    1.873681664466858,
    1.012195348739624,
    -1.4481744766235352
  ],
  "weight": [
    -0.03822847455739975,
    0.2076147496700287,
    0.12475788593292236,
    -0.10741802304983139,
    -0.04138151928782463,
    -0.14495424926280975,
    -0.269080251455307,
    -0.09097957611083984,
    0.02300449274480343,
    -0.16904151439666748,
    -0.2497253119945526,
    0.09736804664134979,
    0.04910043999552727,
    -0.10368621349334717,
    0.09127040952444077,
    0.3080701529979706,
    0.018201828002929688,
    -0.22846059501171112,
    0.3082413673400879,
    0.239876389503479,
    -0.0318148136138916,
    -0.15056797862052917,
    -0.1406489610671997,
    0.29066187143325806,
    0.174129456281662,
    -0.17141589522361755,
    0.013303756713867188,
    0.06837122142314911,
    0.08811633288860321,
    -0.01885843276977539,
    -0.17445795238018036,
    -0.010253151878714561,
    -0.09207793325185776,
    -0.11190219968557358,
    -0.16524073481559753,
    -0.16162841022014618,
    -0.157072514295578,
    0.13134801387786865,
    -0.28181374073028564,
    -0.3170406222343445,
    0.2851048409938812,
    0.11966606229543686,
    0.184365913271904,
    0.1454050987958908,
    -0.12714311480522156,
    -0.2093507945537567,
    -0.22722014784812927,
    -0.02103535458445549,
    0.08267371356487274,
    -0.31224164366722107,
    -0.2559400200843811,
    0.18762938678264618,
    0.04274018853902817,
    0.21986374258995056,
    0.2969035506248474,
    0.20263120532035828,
    -0.070839524269104,
    -0.14831340312957764,
    0.09432423114776611,
    0.27115485072135925,
    -0.3195723295211792,
    0.0894806832075119,
    -0.25696301460266113,
    -0.26500362157821655,
    0.12061583995819092,
    0.16956095397472382,
    0.11412374675273895,
    0.09693801403045654,
    -0.10069414228200912,
    0.008062204346060753,
    -0.2943434715270996,
    -0.2174324244260788
  ],
  "output": [
    0.1705845594406128,
    1.1284303665161133,
    -0.010479606688022614,
    0.6305369138717651,
    0.1445496380329132,
    -0.2400902509689331,
    0.04065834730863571,
    0.2908870577812195,
    -0.5643366575241089,
    1.0682923793792725,
    0.08923329412937164,
    -0.05943049490451813,
    0.8729580044746399,
    -0.00979805737733841,
    -0.30780506134033203,
    -0.5274032950401306,
    -0.8938242793083191,
    0.9421280026435852,
    0.38650035858154297,
    0.27087095379829407,
    -0.17209449410438538,
    -0.5293354392051697,
    -0.11720792949199677,
    -1.311807632446289,
    -0.363031804561615,
    -0.2831132411956787,
    -0.8523877263069153,
    -0.35386937856674194,
    0.052507590502500534,
    0.6406571269035339,
    -0.4536536931991577,
    0.3343198895454407,
    -0.5605990290641785,
    -0.9461830258369446,
    0.2148124724626541,
    0.6780564188957214,
    0.4308043420314789,
    1.199174165725708,
    0.5078798532485962,
    1.2426440715789795,
    0.1385151445865631,
    0.8019466400146484,
    -0.043179869651794434,
    0.4419133961200714,
    -1.0107438564300537,
    0.6496551036834717,
    0.2989804148674011,
    -0.4349687099456787,
    0.5170688629150391,
    0.20426255464553833,
    -0.15726405382156372,
    0.6316782832145691,
    -0.7935550212860107,
    -0.26900312304496765,
    0.7965999841690063,
    0.21220754086971283,
    -0.1368991583585739,
    0.16732504963874817,
    -0.005223415791988373,
    0.6757318377494812,
    0.36874154210090637,
    -0.028676487505435944,
    -0.1784416139125824,
    0.4834668040275574,
    0.476202130317688,
    -0.6891458034515381,
    0.17275068163871765,
    0.3855489194393158,
    0.4052327871322632,
    0.163117915391922,
    -0.893523633480072,
    -0.08496139943599701,
    0.2736048102378845,
    -0.710908055305481,
    -0.037074144929647446,
    -0.7341868281364441,
    -1.049074649810791,
    0.028774674981832504,
    -0.18473951518535614,
    -0.2323768138885498,
    -0.523069441318512,
    -0.4229443669319153,
    -0.15125922858715057,
    -0.5942854285240173,
    0.6505637764930725,
    0.590223491191864,
    0.620972752571106,
    -0.13631555438041687,
    -0.360909104347229,
    -1.218190312385559,
    0.49944108724594116,
    -0.5692636370658875,
    0.17505720257759094,
    0.04848608374595642,
    0.6570977568626404,
    0.42368084192276,
    0.9865031838417053,
    0.3875308036804199,
    0.09589581191539764,
    0.5177731513977051,
    1.1881134510040283,
    0.273899108171463,
    0.11385020613670349,
    0.10424993932247162,
    -0.039696622639894485,
    -0.5863406658172607,
    0.7448596954345703,
    -0.7583350539207458,
    -0.13176314532756805,
    -0.89201819896698,
    0.3027205169200897,
    -0.332986056804657,
    0.6608636975288391,
    0.5111712217330933,
    0.6079629063606262,
    -0.5368471741676331,
    -0.30132901668548584,
    -1.7717430591583252,
    -0.5515808463096619,
    -0.1493837535381317,
    -0.5024008750915527,
    -0.15264937281608582,
    0.12093627452850342,
    -0.2875162959098816,
    1.1775463819503784,
    0.6506162285804749,
    0.14928723871707916,
    0.159501314163208,
    -0.8325313329696655,
    1.3015385866165161,
    -0.6797852516174316,
    -0.33294403553009033,
    0.06923329830169678,
    0.03422878682613373,
    -0.4463542699813843,
    -0.14210405945777893,
    -1.5236300230026245,
    1.101921558380127,
    -0.162454292178154,
    1.049004316329956,
    0.11822156608104706,
    -0.4174136519432068,
    -1.261918544769287,
    -0.47673165798187256,
    -1.1470158100128174,
    0.717490553855896,
    -0.24147014319896698,
    -0.22966551780700684,
    0.7300866842269897,
    -0.43037182092666626,
    -0.2878389060497284,
    -0.7628255486488342,
    -1.6932910680770874,
    -0.1557604819536209,
    0.37600356340408325,
    0.9902642369270325,
    -0.8736540079116821,
    0.0610639750957489,
    0.5976806879043579,
    0.4236586093902588,
    -0.42012345790863037,
    -0.02911274880170822,
    -2.313349485397339,
    -0.9544437527656555,
    -1.4302995204925537,
    0.7594554424285889,
    -1.1172752380371094,
    0.025748446583747864,
    -0.3211568593978882,
    0.5051656365394592,
    -0.9346124529838562,
    0.42531323432922363,
    -0.023239895701408386,
    0.6028133630752563,
    0.3345184326171875,
    -0.5742968320846558,
    -0.37924134731292725,
    0.4020076394081116,
    -1.2457300424575806,
    1.0860573053359985,
    -0.8810757994651794,
    0.29156601428985596,
    -0.40033775568008423,
    -0.13101692497730255,
    0.05253458023071289,
    0.0012297630310058594,
    -0.8684225678443909,
    0.33786576986312866,
    -1.7628014087677002,
    -0.38847893476486206,
    -1.2983416318893433,
    0.7242210507392883,
    -0.2566482424736023,
    0.8359431028366089,
    -0.8870555758476257,
    -0.3419090211391449,
    0.4582791030406952,
    -0.3900490403175354,
    -0.42752358317375183,
    -0.38758987188339233,
    -0.2255425602197647,
    0.13079030811786652,
    -0.43549203872680664,
    0.004196090158075094,
    -0.7267752885818481,
    -0.09246385842561722,
    -0.6027941703796387,
    -0.25172364711761475,
    -0.9985262751579285,
    -1.2737215757369995,
    -0.4685661196708679,
    -0.035541463643312454,
    -0.2837701439857483,
    0.7902658581733704,
    0.2006094604730606,
    0.5450307130813599,
    -0.6427534222602844,
    0.08615756034851074,
    -0.1478785127401352,
    0.621771514415741,
    -0.2806856334209442,
    0.5357520580291748,
    0.6728190779685974,
    -0.014719422906637192,
    1.2861659526824951,
    0.008605883456766605,
    -0.6229689121246338,
    0.8602859973907471,
    0.8838567733764648,
    1.172649621963501,
    -0.5110089182853699,
    0.5675927996635437,
    -0.38855695724487305,
    0.3240644633769989,
    -0.7434399127960205,
    0.18947014212608337,
    -2.2656595706939697,
    -0.9870407581329346,
    -0.6301965117454529,
    0.12114963680505753,
    0.9092990756034851,
    0.282084584236145,
    0.6925213932991028,
    1.2129474878311157,
    -0.49754539132118225,
    -0.09850741922855377,
    -0.32159581780433655,
    0.7447634935379028,
    -0.3989638686180115,
    -0.7781880497932434,
    -0.1449243277311325,
    -0.5301425457000732,
    0.3009634017944336,
    0.4718432128429413,
    0.19517730176448822,
    0.3699412941932678
  ],
  "input_shape": [
    2,
    8,
    8
  ],
  "weight_shape": [
    4,
    2,
    3,
    3
  ],
  "output_shape": [
    4,
    8,
    8
  ],
  "config": {
    "in_channels": 2,
    "out_channels": 4,
    "kernel_size": [
      3,
      3
    ],
    "stride": [
      1,
      1
    ],
    "padding": [
      1,
      1
    ],
    "dilation": [
      1,
      1
    ],
    "groups": 1,
    "bias": true
  },
  "bias": [
    0.08487170934677124,
    0.047945473343133926,
    -0.1516823023557663,
    -0.0017184176249429584
  ]
}