{
  "name": "basic_3x3_no_padding",
  "input": [
    -1.5255959033966064,
    -0.7502318024635315,
    -0.6539809107780457,
    -1.6094849109649658,
    -0.1001671776175499,
    -0.6091889142990112,
    -0.9797722697257996,
    -1.6090962886810303,
    -0.7121446132659912,
    0.30372199416160583,
    -0.777314305305481,
    -0.2514548599720001,
    -0.22227048873901367,
    1.6871134042739868,
    0.22842517495155334,
    0.46763551235198975,
    -0.6969721913337708,
    -1.1607614755630493,
    0.6995424032211304,
    0.1990816295146942,
    0.8656923770904541,
    0.24440394341945648,
    -0.6629116535186768,
    0.8073082566261292,
    1.1016807556152344,
    -0.1759360432624817,
    -2.2455577850341797,
    -1.4464579820632935,
    0.0611552819609642,
    -0.617744505405426,
    -0.7980694770812988,
    -0.13162320852279663,
    1.8793456554412842,
    -0.07213178277015686,
    0.15777060389518738,
    -0.7734549641609192,
    0.1990565061569214,
    0.04570228233933449,
    0.15295691788196564,
    -0.47567880153656006,
    -0.11102072149515152,
    0.2927352488040924,
    -0.1578451544046402,
    -0.028787141665816307,
    2.3571109771728516,
    -1.0373387336730957,
    1.5747981071472168,
    -0.6298472285270691,
    -0.9273917078971863,
    0.5451415777206421,
    0.06628026068210602,
    -0.4370401203632355,
    0.7626007199287415,
    0.4415109157562256,
    1.1651384830474854,
    2.0153918266296387,
    0.1374126821756363,
    0.9386447072029114,
    -0.18600109219551086,
    -0.6446393132209778,
    1.5392457246780396,
    -0.8695875406265259,
    -3.331153631210327,
    -0.7478722333908081,
    -0.025502795353531837,
    -1.023330569267273,
    -0.5961856842041016,
    -1.005530595779419,
    -0.21060630679130554,
    -0.007547527551651001,
    1.6734272241592407,
    0.010342830792069435,
    -0.703956663608551,
    -0.18526577949523926,
    -0.9962347149848938,
    -0.831255316734314,
    -0.4610220193862915,
    -0.5600824356079102,
    0.3955761790275574,
    -0.9822770953178406,
    -0.5064865946769714,
    0.09977540373802185,
    -0.6539738774299622,
    0.731693685054779,
    -1.4343860149383545,
    -0.5008130669593811,
    0.17163313925266266,
    -0.15999312698841095,
    0.25463348627090454,
    -0.5019572973251343,
    -1.0411996841430664,
    0.7322672009468079,
    -1.0483397245407104,
    -0.47087720036506653,
    0.29113635420799255,
    1.9907042980194092,
    0.6614454388618469,
    1.1899205446243286,
    0.8165338039398193,
    -0.9135236144065857,
    1.385144591331482,
    -0.8138463497161865,
    -0.9275765419006348,
    1.1119627952575684,
    1.3352055549621582,
    0.6042736172676086,
    -0.1034424677491188,
    -0.15121671557426453,
    -2.102083683013916,
    -0.6200217604637146,
    -1.4782309532165527,
    -1.133418083190918,
    0.8737962245941162,
    -0.5602594614028931,
    1.2857844829559326,
    0.8168237805366516,
    0.2053031623363495,
    0.30510738492012024,
    0.5356870293617249,
    -0.4311850070953369,
    2.558138370513916,
    -0.23336389660835266,
    -0.013472129590809345,
    1.8606348037719727,
    -1.980406403541565,
    1.798582911491394,
    0.10181158781051636,
    0.3400059938430786
  ],
  "weight": [
    0.20078425109386444,
    0.009923815727233887,
    -0.025960883125662804,
    -0.01063593290746212,
    0.05666482448577881,
    0.15713202953338623,
    0.05345996469259262,
    0.10168497264385223,
    -0.29984158277511597,
    0.242845818400383,
    0.2906213402748108,
    0.2755352854728699,
    0.24640755355358124,
    -0.24054381251335144,
    -0.12356667220592499,
    0.2939084470272064,
    -0.2538861930370331,
    0.30240708589553833,
    -0.262165367603302,
    -0.23480284214019775,
    0.16295933723449707,
    -0.2394963502883911,
    -0.07636690139770508,
    0.2424972951412201,
    0.2640296220779419,
    0.3152519166469574,
    -0.06763915717601776,
    -0.259086936712265,
    0.32820364832878113,
    -0.07100872695446014,
    -0.1371450424194336,
    0.08125793933868408,
    -0.23310816287994385,
    0.2190934121608734,
    0.20891091227531433,
    -0.26449376344680786,
    -0.27379080653190613,
    -0.02919880673289299,
    0.14000849425792694,
    -0.009654045104980469,
    -0.16902586817741394,
    0.007620811462402344,
    -0.31331074237823486,
    -0.2355870008468628,
    -0.2218964546918869,
    0.27451011538505554,
    0.29383528232574463,
    -0.11322224140167236,
    0.014950117096304893,
    0.14865931868553162,
    0.03993912786245346,
    -0.16691753268241882,
    0.19224612414836884,
    0.20491139590740204,
    -0.01931850239634514,
    -0.04103418439626694,
    0.3029150664806366,
    0.2913762927055359,
    -0.18899273872375488,
    0.3261291980743408,
    0.08249084651470184,
    -0.2214202880859375,
    0.18247084319591522,
    -0.24885818362236023,
    0.30797621607780457,
    -0.21429304778575897,
    0.09427599608898163,
    0.10150007903575897,
    0.07928597927093506,
    0.27647408843040466,
    -0.13844983279705048,
    -0.14072343707084656
  ],
  "output": [
    -1.6508780717849731,
    -0.2843237519264221,
    -1.728936791419983,
    0.021725516766309738,
    0.4944283664226532,
    -0.22785478830337524,
    -0.07986719906330109,
    0.15913349390029907,
    -1.9238742589950562,
    0.49290838837623596,
    -0.5201104879379272,
    0.2478465884923935,
    -0.3672293424606323,
    -0.4476947784423828,
    0.14175160229206085,
    -0.8695351481437683,
    -0.3386486768722534,
    -0.13855019211769104,
    -0.08379051089286804,
    -0.024650348350405693,
    -1.952048659324646,
    -0.15655122697353363,
    -1.0133161544799805,
    0.3066270649433136,
    2.0211522579193115,
    0.3343622386455536,
    0.8913255333900452,
    0.47375890612602234,
    -0.3067376911640167,
    -0.4786491096019745,
    1.617957592010498,
    0.18996867537498474,
    -2.2104392051696777,
    1.3877694606781006,
    -0.6261935234069824,
    -0.292619526386261,
    -0.06912205368280411,
    -0.12491313368082047,
    1.268417239189148,
    1.5236958265304565,
    -0.2755526900291443,
    0.46730101108551025,
    1.4399616718292236,
    -1.3101779222488403,
    -0.10546795278787613,
    0.07740563899278641,
    -1.2034293413162231,
    -0.7518308162689209,
    0.7821455597877502,
    0.3024601936340332,
    0.9282748699188232,
    -0.5742906332015991,
    0.10485266149044037,
    -0.3618996739387512,
    -0.8510484099388123,
    0.17812113463878632,
    1.3649297952651978,
    0.8599569797515869,
    0.02121105045080185,
    0.15352468192577362,
    -0.785891592502594,
    -0.1263754516839981,
    0.8827398419380188,
    0.7087591886520386,
    0.09982724487781525,
    0.5370743274688721,
    0.37598833441734314,
    -0.7980219125747681,
    1.1465020179748535,
    -1.452460765838623,
    0.5288860201835632,
    -0.9619602560997009,
    0.3332109749317169,
    -0.19107811152935028,
    -0.786798894405365,
    -0.803017795085907,
    -0.6532109379768372,
    0.4499989449977875,
    0.021284395828843117,
    0.4689069390296936,
    0.9092068076133728,
    -0.15448658168315887,
    0.05876469984650612,
    0.7986058592796326,
    -0.09730608761310577,
    0.29033613204956055,
    0.547614574432373,
    0.11032254993915558,
    -1.5111379623413086,
    0.5399999022483826,
    -0.43571949005126953,
    -0.697192370891571,
    -0.08595465123653412,
    -0.38678163290023804,
    -1.5828622579574585,
    -0.5025576949119568,
    0.2090851366519928,
    1.0540355443954468,
    -0.3327384293079376,
    -0.41259676218032837,
    -0.2263977825641632,
    -2.089742422103882,
    -0.19626052677631378,
    0.62631756067276,
    0.6371568441390991,
    -1.104712724685669,
    0.21652603149414062,
    0.614241361618042,
    -0.6356176733970642,
    -0.2894326150417328,
    -0.34232378005981445,
    0.8282423615455627,
    -1.3109982013702393,
    0.8650211691856384,
    0.35940778255462646,
    -0.31559333205223083,
    0.40110278129577637,
    0.8364946246147156,
    -0.4897892475128174,
    0.7402952909469604,
    0.28583449125289917,
    -0.2595933675765991,
    0.94647216796875,
    -1.519905924797058,
    0.4500032365322113,
    0.2802378237247467,
    0.46920642256736755,
    -0.5187230110168457,
    1.9937905073165894,
    -1.1006172895431519,
    0.4342532455921173,
    -0.7243318557739258,
    0.134779155254364,
    -0.34485822916030884,
    0.39941081404685974,
    -0.08937779814004898,
    0.8795495629310608,
    -1.258778691291809,
    0.20565490424633026,
    -0.2345033586025238,
    2.2450037002563477,
    -0.8094043135643005,
    0.7358498573303223,
    1.386422038078308
  ],
  "input_shape": [
    2,
    8,
    8
  ],
  "weight_shape": [
    4,
    2,
    3,
    3
  ],
  "output_shape": [
    4,
    6,
    6
  ],
  "config": {
    "in_channels": 2,
    "out_channels": 4,
    "kernel_size": [
      3,
      3
    ],
    "stride": [
      1,
      1
    ],
    "padding": [
      0,
      0
    ],
    "dilation": [
      1,
      1
    ],
    "groups": 1,
    "bias": true
  },
  "bias": [
    -0.04607681557536125,
    -0.009909371845424175,
    0.047284480184316635,
    0.1004948541522026
  ]
}