{
  "metadata": {
    "pytorch_version": "2.8.0",
    "description": "Reference outputs for Swift transformer validation"
  },
  "attention": {
    "config": {
      "embed_dim": 64,
      "num_heads": 8,
      "seq_len": 16,
      "head_dim": 8
    },
    "weights": {
      "in_proj_weight": [
        [
          0.1392720490694046,
          -0.017304016277194023,
          0.05890306830406189,
          -0.1215897724032402,
          0.08157827705144882,
          0.14628833532333374,
          0.07972250133752823,
          -0.060530051589012146,
          0.12481973320245743,
          -0.14499107003211975,
          -0.01837066374719143,
          -0.03793276846408844,
          -0.15270523726940155,
          -0.08733592182397842,
          -0.11154147237539291,
          0.04114697873592377,
          -0.012734350748360157,
          0.07031162083148956,
          -0.03443898260593414,
          0.1262834370136261,
          0.01734057255089283,
          0.12690529227256775,
          0.12431898713111877,
          -0.12983088195323944,
          -0.10281287878751755,
          0.09221208095550537,
          0.1446380764245987,
          -0.13066723942756653,
          0.002240658737719059,
          -0.05885833874344826,
          0.14413148164749146,
          0.12717808783054352,
          0.11142157018184662,
          0.0823860839009285,
          -0.014360290952026844,
          0.14126482605934143,
          -0.07163994014263153,
          0.0075665004551410675,
          -0.04028141126036644,
          -0.11168231070041656,
          -0.0725487768650055,
          0.03711894154548645,
          -0.013659139163792133,
          -0.10141663998365402,
          -0.019462933763861656,
          0.026440100744366646,
          -0.10711180418729782,
          0.09245841950178146,
          -0.13015791773796082,
          0.0014646999770775437,
          -0.12523368000984192,
          -0.13805240392684937,
          -0.01901746541261673,
          0.13894350826740265,
          0.14472554624080658,
          0.055022984743118286,
          0.11866230517625809,
          -0.0836881548166275,
          0.08619034290313721,
          0.09341209381818771,
          -0.14631107449531555,
          -0.11732004582881927,
          0.06613960862159729,
          0.01414672750979662
        ],
        [
          -0.10362567007541656,
          -0.12080924957990646,
          0.1106448620557785,
          0.016724100336432457,
          -0.00033881349372677505,
          -0.1479974091053009,
          0.13432282209396362,
          -0.10120370984077454,
          0.06821638345718384,
          -0.01840844191610813,
          0.004988652653992176,
          0.07517030090093613,
          -0.04078235849738121,
          -0.042949654161930084,
          0.12204336374998093,
          -0.11731221526861191,
          0.06812775880098343,
          -0.03950884938240051,
          -0.05115324631333351,
          0.10248315334320068,
          0.025845950469374657,
          -0.14253199100494385,
          0.13680754601955414,
          -0.07596525549888611,
          0.13234677910804749,
          -0.04804738610982895,
          0.14927175641059875,
          0.04516271874308586,
          -0.007395606022328138,
          0.05844070389866829,
          -0.004760744981467724,
          -0.07593169063329697,
          0.08374332636594772,
          0.09929922223091125,
          -0.01917930878698826,
          0.14400240778923035,
          0.009722313843667507,
          -0.08096398413181305,
          -0.08342798799276352,
          0.10300551354885101,
          -0.06201610341668129,
          0.09669473022222519,
          -0.14871366322040558,
          0.005273609887808561,
          -0.1057790145277977,
          0.05430569872260094,
          0.12433035671710968,
          0.060243960469961166,
          -0.0526374913752079,
          -0.14361828565597534,
          -0.07253554463386536,
          -0.09029689431190491,
          0.1461912840604782,
          -0.08231251686811447,
          0.05919397622346878,
          0.1228979229927063,
          0.05519280210137367,
          -0.1343400776386261,
          -0.017390741035342216,
          -0.04543774574995041,
          0.09863975644111633,
          -0.014360746368765831,
          -0.008074820972979069,
          0.13618722558021545
        ],
        [
          0.036430343985557556,
          0.07096700370311737,
          -0.04928208142518997,
          0.10011890530586243,
          0.0220118910074234,
          -0.030752331018447876,
          0.029503073543310165,
          -0.12050644308328629,
          0.005629231687635183,
          0.07021050155162811,
          -0.14335422217845917,
          -0.08132000267505646,
          0.09591612219810486,
          0.0034718483220785856,
          -0.005214698612689972,
          0.015622961334884167,
          -0.06871119886636734,
          0.12659618258476257,
          -0.015179593116044998,
          -0.055742714554071426,
          0.08058664202690125,
          -0.12742672860622406,
          -0.028238559141755104,
          0.01543000340461731,
          -0.04751129075884819,
          0.08332160115242004,
          -0.13074138760566711,
          -0.04413576424121857,
          -0.06434471160173416,
          0.141662135720253,
          0.06109718978404999,
          -0.11420177668333054,
          0.05933348089456558,
          -0.0032466601114720106,
          0.1401454359292984,
          0.08448665589094162,
          -0.08941061049699783,
          0.1364656537771225,
          -0.02738153375685215,
          -0.03486074134707451,
          0.04577907919883728,
          0.15209966897964478,
          0.046192627400159836,
          -0.14771395921707153,
          -0.04887115955352783,
          0.1425582617521286,
          -0.05395810678601265,
          -0.07365230470895767,
          -0.12202850729227066,
          -0.08450943231582642,
          -0.0837029218673706,
          0.03656276687979698,
          0.06116460636258125,
          0.14610826969146729,
          0.10047018527984619,
          0.0022621024399995804,
          0.08256249129772186,
          0.08750606328248978,
          -0.132046639919281,
          0.07725004106760025,
          -0.10472600162029266,
          0.11822107434272766,
          -0.06658682972192764,
          0.031764958053827286
        ],
        [
          -0.0016289693303406239,
          0.07102653384208679,
          0.02381213754415512,
          -0.1110529750585556,
          0.06201659515500069,
          0.09030906856060028,
          -0.07972543686628342,
          -0.09931252151727676,
          -0.1042463555932045,
          -0.07448827475309372,
          -0.019301364198327065,
          0.011446841061115265,
          -0.001079786685295403,
          -0.04049147292971611,
          0.09500319510698318,
          0.008090570569038391,
          -0.08889391273260117,
          -0.04051608964800835,
          -0.09000878036022186,
          -0.05400921031832695,
          -0.14441344141960144,
          0.026750005781650543,
          -0.11862217634916306,
          0.0592111311852932,
          0.1048748716711998,
          -0.11389019340276718,
          -0.08079204708337784,
          -0.12096446752548218,
          0.04085605591535568,
          0.029622757807374,
          -0.07901864498853683,
          0.0924806073307991,
          0.0635254979133606,
          -0.1383255124092102,
          -0.008327493444085121,
          -0.06590494513511658,
          -0.026544837281107903,
          0.08524297922849655,
          -0.016466738656163216,
          -0.10632526129484177,
          0.10769098997116089,
          -0.13993410766124725,
          -0.05257723107933998,
          0.058988846838474274,
          0.13531732559204102,
          0.14858338236808777,
          -0.03596467524766922,
          0.051086653023958206,
          -0.13445118069648743,
          -0.029788905754685402,
          -0.047620609402656555,
          0.043459124863147736,
          -0.10030699521303177,
          0.033075351268053055,
          0.07909325510263443,
          0.11931270360946655,
          -0.025886137038469315,
          0.13986682891845703,
          -0.14464329183101654,
          -0.043382637202739716,
          0.05803987383842468,
          0.039257124066352844,
          0.0720973089337349,
          -0.10158879309892654
        ],
        [
          0.09426439553499222,
          -0.14368166029453278,
          -0.10497261583805084,
          -0.010411584749817848,
          -0.1487310230731964,
          -0.14551942050457,
          -0.13590572774410248,
          0.1230851486325264,
          0.03358173742890358,
          -0.04884761944413185,
          -0.0062919482588768005,
          -0.1334388107061386,
          -0.1445888876914978,
          -0.10676393657922745,
          -0.14810816943645477,
          0.10072188824415207,
          -0.053572025150060654,
          -0.04132659733295441,
          -0.1318354606628418,
          0.025355441495776176,
          -0.02296920120716095,
          -0.10422390699386597,
          0.09815727174282074,
          0.12904366850852966,
          -0.10912162065505981,
          0.08673954010009766,
          -0.024858782067894936,
          -0.0014453548938035965,
          0.06516386568546295,
          -0.027911590412259102,
          0.13007454574108124,
          0.09419296681880951,
          -0.09937762469053268,
          -0.09316672384738922,
          -0.15168465673923492,
          0.04901520907878876,
          -0.11515461653470993,
          -0.12831942737102509,
          -0.09812765568494797,
          -0.15135884284973145,
          -0.12465500831604004,
          0.13655368983745575,
          0.0855155810713768,
          0.13564448058605194,
          -0.0742625743150711,
          -0.0627913698554039,
          -0.053715456277132034,
          0.0029899904038757086,
          -0.10988494753837585,
          0.02244376204907894,
          -0.09811719506978989,
          0.02419179491698742,
          0.1402329057455063,
          0.025857282802462578,
          0.11167287826538086,
          -0.10903430730104446,
          -0.021605078130960464,
          -0.09453170746564865,
          -0.016985205933451653,
          -0.06089996173977852,
          -0.0869244858622551,
          -0.14787885546684265,
          -0.0567658357322216,
          0.020501986145973206
        ],
        [
          -0.026932215318083763,
          -0.14258252084255219,
          0.11500024050474167,
          0.11351653933525085,
          -0.09230002760887146,
          0.01556271780282259,
          0.10165520012378693,
          -0.14538460969924927,
          -0.13527309894561768,
          0.08494606614112854,
          -0.003032184671610594,
          0.04875067248940468,
          -0.0636645257472992,
          0.027757395058870316,
          0.10153760015964508,
          -0.037453848868608475,
          -0.04944990947842598,
          -0.14577358961105347,
          -0.023623540997505188,
          0.09700983762741089,
          -0.14468352496623993,
          -0.011825933121144772,
          0.11159489303827286,
          -0.04369502514600754,
          -0.056563057005405426,
          -0.046177733689546585,
          -0.06202676147222519,
          0.01832314021885395,
          -0.14739865064620972,
          0.058502569794654846,
          -0.038664560765028,
          -0.019491586834192276,
          -0.010329057462513447,
          0.0855230987071991,
          -0.09509601444005966,
          -0.1393122524023056,
          -0.11073978245258331,
          -0.11230765283107758,
          -0.07453621178865433,
          0.12091532349586487,
          -0.11843515187501907,
          -0.08999240398406982,
          -0.12480206787586212,
          -0.07690831273794174,
          -0.004297812469303608,
          -0.09335092455148697,
          0.0016182017279788852,
          0.051736120134592056,
          -0.026047030463814735,
          0.06605353951454163,
          0.03512991592288017,
          0.1478891521692276,
          -0.007815960794687271,
          0.13269488513469696,
          0.11458908021450043,
          0.07318594306707382,
          0.08664053678512573,
          -0.10252673923969269,
          -0.10253345221281052,
          0.06537739187479019,
          0.05558831989765167,
          0.1381566822528839,
          -0.019932838156819344,
          -0.02814294584095478
        ],
        [
          0.10495097190141678,
          0.004944213200360537,
          0.14372724294662476,
          -0.07808870822191238,
          -0.050230156630277634,
          0.00661484757438302,
          0.08165135234594345,
          -0.13421179354190826,
          -0.0428532212972641,
          0.11118222028017044,
          0.031877268105745316,
          0.10823357105255127,
          -0.051857974380254745,
          -0.09650713205337524,
          -0.10451791435480118,
          -0.0860736146569252,
          -0.11505066603422165,
          0.07586825639009476,
          0.04114920645952225,
          -0.0979527086019516,
          0.1403246521949768,
          0.04358546808362007,
          0.056974709033966064,
          -0.06450625509023666,
          0.1059921607375145,
          -0.10799016803503036,
          0.11159370839595795,
          -0.08319294452667236,
          0.06502415984869003,
          -0.05538357049226761,
          0.09945987910032272,
          -0.12839478254318237,
          -0.02984989807009697,
          -0.04132232815027237,
          -0.09154540300369263,
          -0.07519844174385071,
          -0.04295870661735535,
          0.01587408408522606,
          0.10866640508174896,
          -0.025157373398542404,
          0.1500619649887085,
          -0.07285244017839432,
          -0.07881461083889008,
          -0.007985741831362247,
          -0.027714980766177177,
          0.048627376556396484,
          0.14145590364933014,
          0.052417561411857605,
          -0.12810364365577698,
          -0.05230559781193733,
          -0.0304141566157341,
          -0.13940605521202087,
          0.047334592789411545,
          0.13363586366176605,
          0.07603425532579422,
          -0.003031454747542739,
          -0.01165518444031477,
          -0.07169253379106522,
          -0.017007652670145035,
          0.13426831364631653,
          -0.07870859652757645,
          0.02449270337820053,
          -0.1123277097940445,
          -0.04186510294675827
        ],
        [
          0.00886512454599142,
          -0.11560050398111343,
          0.04159523919224739,
          -0.13146468997001648,
          -0.06253915280103683,
          0.10653720051050186,
          0.14360962808132172,
          -0.011969451792538166,
          -0.10942205041646957,
          -0.12570063769817352,
          -0.037622954696416855,
          -0.07812464237213135,
          0.12169542163610458,
          -0.10913532227277756,
          0.09215187281370163,
          0.02910744771361351,
          -0.04656358063220978,
          0.12479343265295029,
          0.0851946696639061,
          -0.005354494322091341,
          -0.103763148188591,
          -0.04505922272801399,
          0.049361396580934525,
          0.13265059888362885,
          -0.05166249722242355,
          -0.06362291425466537,
          -0.1495797485113144,
          0.09409775584936142,
          0.14942285418510437,
          0.10540135204792023,
          -0.08530524373054504,
          0.10967255383729935,
          -0.04641299694776535,
          0.08003999292850494,
          0.08951589465141296,
          -0.12481600791215897,
          0.037885699421167374,
          0.061118271201848984,
          -0.09203465282917023,
          0.14154210686683655,
          0.1195160299539566,
          0.12794986367225647,
          -0.001381059642881155,
          -0.08191072195768356,
          -0.08366218954324722,
          0.05411037057638168,
          -0.030414795503020287,
          0.12168115377426147,
          0.1282161921262741,
          0.011814052239060402,
          -0.12533500790596008,
          0.06076730042695999,
          0.13700227439403534,
          -0.03845231235027313,
          -0.08012142777442932,
          -0.03581257909536362,
          0.02193368971347809,
          -0.1135895773768425,
          0.08175735175609589,
          0.06543911248445511,
          -0.05853235349059105,
          -0.0567125640809536,
          -0.07264138013124466,
          0.11967232078313828
        ],
        [
          0.09079854935407639,
          0.043513599783182144,
          -0.006866407580673695,
          0.038244735449552536,
          0.14770425856113434,
          0.04847199469804764,
          -0.07635217159986496,
          0.059221040457487106,
          -0.06075357645750046,
          -0.0054362001828849316,
          -0.09860379993915558,
          -0.004479108843952417,
          0.007986709475517273,
          -0.09284752607345581,
          0.09842360019683838,
          0.14139507710933685,
          -0.12805266678333282,
          0.04436095431447029,
          -0.10575730353593826,
          -0.030428428202867508,
          0.07333409786224365,
          -0.002687421627342701,
          0.04639212042093277,
          -0.04960204288363457,
          0.14610043168067932,
          -0.07187547534704208,
          0.02865373156964779,
          0.01571461372077465,
          0.10428354889154434,
          0.01563352905213833,
          0.09230278432369232,
          0.0394449345767498,
          0.09761493653059006,
          0.0019349143840372562,
          0.0510844811797142,
          0.15101410448551178,
          -0.04987708851695061,
          -0.062297940254211426,
          0.11113174259662628,
          0.05854266509413719,
          -0.14450590312480927,
          0.05444952845573425,
          -0.1501467227935791,
          -0.08311773091554642,
          0.0599120631814003,
          0.08064562827348709,
          -0.03456764668226242,
          0.12958814203739166,
          0.1521414816379547,
          0.11937813460826874,
          -0.1406095027923584,
          -0.05568573623895645,
          0.00931431446224451,
          0.12442979961633682,
          -0.025680987164378166,
          0.03198103979229927,
          0.08057932555675507,
          -0.0800982117652893,
          -0.09271249920129776,
          0.15139898657798767,
          -0.003416057676076889,
          0.10832682251930237,
          -0.1492798626422882,
          -0.05843546614050865
        ],
        [
          0.10742338746786118,
          -0.014821580611169338,
          0.051565609872341156,
          -0.1282491683959961,
          0.1490096151828766,
          -0.07641039043664932,
          -0.00774106290191412,
          -0.1002754345536232,
          -0.06792335957288742,
          -0.13124476373195648,
          -0.13400055468082428,
          -0.03127627447247505,
          -0.06752774864435196,
          0.1130896508693695,
          -0.0007406994118355215,
          0.11904466897249222,
          -0.025641493499279022,
          0.03247946873307228,
          0.1470310240983963,
          -0.11846349388360977,
          -0.0663207396864891,
          0.13087956607341766,
          -0.035099200904369354,
          -0.041230108588933945,
          0.012286310084164143,
          -0.08218683302402496,
          0.011010133661329746,
          -0.06362994015216827,
          0.048567187041044235,
          -0.032497916370630264,
          -0.05137252062559128,
          -0.05767114832997322,
          0.039774879813194275,
          0.07682822644710541,
          -0.13996385037899017,
          -0.10677170008420944,
          -0.1469261646270752,
          0.07146327942609787,
          0.11481618881225586,
          -0.1470920890569687,
          0.03979816660284996,
          0.031047891825437546,
          -0.08215474337339401,
          0.03307606279850006,
          0.11804656684398651,
          0.15016435086727142,
          0.066201351583004,
          -0.03035602904856205,
          -0.08710702508687973,
          -0.05830683931708336,
          0.0012556631118059158,
          -0.011242586188018322,
          0.11170926690101624,
          -0.1383516937494278,
          0.013664523139595985,
          -0.04869106784462929,
          0.012766671366989613,
          0.1472207009792328,
          0.004478652961552143,
          -0.02655215561389923,
          -0.051888834685087204,
          -0.15277744829654694,
          -0.13870392739772797,
          0.06670554727315903
        ],
        [
          -0.093488909304142,
          0.08691813796758652,
          -0.04340378940105438,
          0.055232059210538864,
          0.11175726354122162,
          0.02239556424319744,
          0.05256589874625206,
          0.12937526404857635,
          -0.04810722917318344,
          0.11258775740861893,
          -0.12875525653362274,
          0.14018675684928894,
          -0.05021672323346138,
          -0.005762092769145966,
          0.08588337153196335,
          0.011239574290812016,
          0.13386674225330353,
          -0.06728708744049072,
          -0.0843803882598877,
          0.13666680455207825,
          -0.09240571409463882,
          0.10535634309053421,
          0.14744660258293152,
          0.10363355278968811,
          -0.057880550622940063,
          -0.002263069851323962,
          -0.1379675716161728,
          -0.08336146175861359,
          -0.031686991453170776,
          -0.10114827007055283,
          0.08832142502069473,
          0.0802195742726326,
          -0.04380958154797554,
          -0.024076856672763824,
          0.14788194000720978,
          -0.009429673664271832,
          0.1300317645072937,
          0.14181210100650787,
          -0.05370151251554489,
          -0.14621657133102417,
          0.1428002119064331,
          -0.08231092989444733,
          0.14639899134635925,
          -0.09773412346839905,
          0.027766939252614975,
          0.04526489973068237,
          -0.03616360202431679,
          0.11938419193029404,
          -0.13880550861358643,
          -0.06361596286296844,
          -0.024098847061395645,
          0.11725150048732758,
          0.07090500742197037,
          0.09847772866487503,
          0.06589741259813309,
          0.13769634068012238,
          -0.0381266213953495,
          -0.047261644154787064,
          -0.021022571250796318,
          0.06022490933537483,
          -0.044894661754369736,
          0.05622820556163788,
          0.04197343438863754,
          0.03599697723984718
        ],
        [
          0.12473125755786896,
          0.024383841082453728,
          0.10159002989530563,
          -0.04268261790275574,
          -0.13757412135601044,
          0.09356437623500824,
          0.06349266320466995,
          0.12860962748527527,
          0.05849580094218254,
          0.003059578128159046,
          -0.110503189265728,
          -0.14514560997486115,
          0.030724499374628067,
          0.12489397823810577,
          -0.011901342310011387,
          -0.049944449216127396,
          0.07658948004245758,
          -0.0741192176938057,
          0.0540209598839283,
          -0.12423200905323029,
          -0.13874375820159912,
          -0.08931426703929901,
          -0.02621253952383995,
          0.051622841507196426,
          0.07746085524559021,
          -0.09690022468566895,
          -0.03144202008843422,
          0.050408314913511276,
          -0.03376186639070511,
          0.002300610300153494,
          0.09911338239908218,
          -0.044164836406707764,
          0.07892899960279465,
          0.12439435720443726,
          0.05103575438261032,
          -0.027202937752008438,
          -0.0969356819987297,
          -0.10118648409843445,
          -0.02974603697657585,
          0.047844115644693375,
          0.0837293341755867,
          -0.007385258562862873,
          0.12336939573287964,
          -0.06063595414161682,
          0.030528711155056953,
          -0.07837919890880585,
          0.04113765433430672,
          0.130660280585289,
          0.053643714636564255,
          0.010257663205265999,
          -0.05634268745779991,
          -0.12560579180717468,
          -0.10476310551166534,
          -0.131321981549263,
          0.1088101789355278,
          -0.06386673450469971,
          -0.022906675934791565,
          -0.13718773424625397,
          -0.04268844053149223,
          0.13021565973758698,
          0.02814619429409504,
          -0.027336837723851204,
          0.07979347556829453,
          0.11802760511636734
        ],
        [
          0.11913198977708817,
          -0.11327306181192398,
          0.010991610586643219,
          -0.1257154941558838,
          -0.10555366426706314,
          0.11755777150392532,
          -0.1219722256064415,
          -0.07507946342229843,
          0.07341892272233963,
          0.14895552396774292,
          -0.14871712028980255,
          -0.09878796339035034,
          -0.060032933950424194,
          0.11859480291604996,
          0.08921825885772705,
          0.09544189274311066,
          0.0980960801243782,
          -0.03831355646252632,
          0.1128811240196228,
          -0.004301973152905703,
          0.01438365038484335,
          -0.04059911146759987,
          0.06494376808404922,
          0.06836563348770142,
          -0.016227934509515762,
          0.1347738802433014,
          -0.039649009704589844,
          0.03874935209751129,
          0.13904830813407898,
          0.08625511080026627,
          -0.05574754998087883,
          -0.0693482905626297,
          0.02954627200961113,
          -0.0011602697195485234,
          0.010774524882435799,
          0.09861710667610168,
          0.05351364612579346,
          -0.08586132526397705,
          -0.12499522417783737,
          0.14473693072795868,
          -0.016854023560881615,
          -0.06031312793493271,
          -0.11244091391563416,
          0.14701208472251892,
          0.07725165039300919,
          -0.09705117344856262,
          -0.13222141563892365,
          0.13299529254436493,
          0.06591297686100006,
          -0.022487835958600044,
          -0.12723354995250702,
          0.09279067814350128,
          -0.10392281413078308,
          0.07523039728403091,
          -0.14540469646453857,
          -0.136499285697937,
          -0.14686603844165802,
          0.13878542184829712,
          0.1391216665506363,
          -0.13063184916973114,
          0.11834623664617538,
          -0.09305402636528015,
          -0.14227750897407532,
          0.0736776739358902
        ],
        [
          0.08678270131349564,
          0.08677742630243301,
          0.026867426931858063,
          0.14692464470863342,
          -0.13188302516937256,
          0.07063574343919754,
          -0.04851289093494415,
          0.007561007048934698,
          0.105586476624012,
          -0.10963070392608643,
          0.06709033250808716,
          -0.030578771606087685,
          0.09902375191450119,
          -0.004020173102617264,
          0.07595518231391907,
          0.14689160883426666,
          -0.05466190725564957,
          -0.1508038491010666,
          0.14440912008285522,
          -0.08428681641817093,
          0.03498626872897148,
          0.09521446377038956,
          -0.023774506524205208,
          0.11964750289916992,
          0.09921262413263321,
          -0.030821973457932472,
          0.040139153599739075,
          0.011601949110627174,
          0.14976929128170013,
          0.10599082708358765,
          -0.10196640342473984,
          0.014750806614756584,
          0.08257219940423965,
          0.11704029142856598,
          0.052270904183387756,
          0.0650518611073494,
          -0.02826613560318947,
          0.003320573130622506,
          -0.10595644265413284,
          0.1260325312614441,
          0.12055152654647827,
          -0.08430006355047226,
          -0.13106976449489594,
          0.11938012391328812,
          -0.13568812608718872,
          0.09818194806575775,
          -0.14911878108978271,
          -0.07826933264732361,
          -0.06481879204511642,
          0.14387769997119904,
          -0.025905665010213852,
          0.1320561021566391,
          0.04448001831769943,
          0.1483139842748642,
          0.10140086710453033,
          0.11274915933609009,
          0.13347411155700684,
          -0.04523153975605965,
          -0.04209224507212639,
          0.049327924847602844,
          0.13486619293689728,
          -0.05633949488401413,
          -0.1204252541065216,
          -0.11975881457328796
        ],
        [
          -0.07072903960943222,
          0.024428334087133408,
          -0.01771601289510727,
          -0.040826816111803055,
          -0.07157071679830551,
          0.03982017561793327,
          -0.1261054128408432,
          0.15061648190021515,
          -0.023709280416369438,
          0.02856532670557499,
          0.05043235048651695,
          -0.05956719070672989,
          0.12081988900899887,
          -0.0011346647515892982,
          0.012558857910335064,
          -0.14573867619037628,
          0.018949758261442184,
          0.052530236542224884,
          0.021333150565624237,
          -0.01517220214009285,
          0.1155996099114418,
          0.121036097407341,
          0.1053987592458725,
          -0.02657110057771206,
          0.026446012780070305,
          -0.1068924218416214,
          -0.11461196839809418,
          -0.02675672248005867,
          0.01711195334792137,
          -0.08916976302862167,
          -0.12778587639331818,
          0.06964476406574249,
          0.055972810834646225,
          -0.1011490747332573,
          0.10187378525733948,
          -0.1144314557313919,
          0.11580879241228104,
          0.08132978528738022,
          -0.05174042657017708,
          0.145753413438797,
          -0.085957832634449,
          -0.06993158161640167,
          0.12202128022909164,
          -0.03944927826523781,
          -0.06183254346251488,
          0.02368849329650402,
          -0.02586899884045124,
          0.09644731134176254,
          0.1249895915389061,
          0.06809857487678528,
          0.033109150826931,
          0.03845955803990364,
          0.003985844552516937,
          0.01797877810895443,
          0.0029070982709527016,
          0.1043933555483818,
          0.08561252057552338,
          -0.015392499044537544,
          0.05781198665499687,
          0.00846690684556961,
          0.05410049483180046,
          0.12568961083889008,
          -0.10416077822446823,
          0.021755915135145187
        ],
        [
          -0.031849656254053116,
          -0.14966626465320587,
          -0.1487642079591751,
          -0.020045842975378036,
          0.10957188904285431,
          -0.10094738751649857,
          0.049868110567331314,
          0.0882352665066719,
          -0.1115865707397461,
          0.06574816256761551,
          0.0288938470184803,
          -0.13937781751155853,
          -0.0029434708412736654,
          -0.14372509717941284,
          0.13384971022605896,
          0.0717519223690033,
          0.058659814298152924,
          0.11753351986408234,
          0.11708016693592072,
          0.1519833356142044,
          0.06316346675157547,
          -0.11052992939949036,
          0.14219841361045837,
          0.042526960372924805,
          -0.06034928187727928,
          -0.056975893676280975,
          0.14325477182865143,
          0.03400840610265732,
          0.11127493530511856,
          0.011939667165279388,
          0.1414172649383545,
          -0.11202309280633926,
          0.03648717701435089,
          0.03653082996606827,
          -0.0017656628042459488,
          0.13618770241737366,
          0.030742913484573364,
          0.008293183520436287,
          0.10449099540710449,
          -0.012086106464266777,
          -0.00989147461950779,
          -0.12621904909610748,
          -0.0010030267294496298,
          -0.0714600682258606,
          0.08863817155361176,
          0.13318148255348206,
          -0.14282521605491638,
          -0.08867381513118744,
          0.14739340543746948,
          -0.06534355878829956,
          0.1361512839794159,
          0.15073002874851227,
          -0.03839382156729698,
          -0.12392761558294296,
          0.0765494555234909,
          0.0695919618010521,
          0.13304099440574646,
          0.022111281752586365,
          0.08324440568685532,
          -0.13126806914806366,
          0.021098654717206955,
          0.03603165224194527,
          0.09595225751399994,
          -0.08195067197084427
        ],
        [
          -0.01829528994858265,
          -0.09125357866287231,
          -0.10303350538015366,
          0.06373123079538345,
          0.023345191031694412,
          0.06083090230822563,
          -0.003486101748421788,
          -0.0037608572747558355,
          -0.00587827293202281,
          0.08269514888525009,
          -0.10593147575855255,
          0.03300143778324127,
          0.0839461237192154,
          0.08879255503416061,
          -0.0734662115573883,
          0.11855262517929077,
          -0.10203071683645248,
          0.07982861995697021,
          0.12523047626018524,
          0.004912202712148428,
          0.046901553869247437,
          -0.14502830803394318,
          -0.060557443648576736,
          -0.060149043798446655,
          -0.14253494143486023,
          -0.032419513911008835,
          0.10687725245952606,
          -0.014617105945944786,
          0.1512831598520279,
          -0.1378105878829956,
          0.06105583533644676,
          0.13238121569156647,
          0.14880019426345825,
          -0.05938706174492836,
          -0.13822981715202332,
          -0.0562683530151844,
          0.11348920315504074,
          0.01341352891176939,
          0.14632640779018402,
          -0.11178526282310486,
          -0.09586416184902191,
          0.07802136987447739,
          0.05249245837330818,
          -0.09946171939373016,
          0.1424250453710556,
          -0.059042301028966904,
          -0.12723557651042938,
          0.042545706033706665,
          -0.08576797693967819,
          -0.07285372167825699,
          -0.08552353829145432,
          0.041639622300863266,
          0.07172316312789917,
          0.10296516120433807,
          -0.08663035184144974,
          -0.03577952831983566,
          0.14290055632591248,
          -0.0786428228020668,
          -0.05533761531114578,
          -0.029437555000185966,
          -0.13556109368801117,
          -0.11315509676933289,
          0.1363891363143921,
          0.028260039165616035
        ],
        [
          0.02860420010983944,
          0.060690686106681824,
          0.09310326725244522,
          0.10283464938402176,
          0.10965088754892349,
          0.061790239065885544,
          0.11541188508272171,
          0.1000274196267128,
          -0.025598770007491112,
          0.01379001047462225,
          -0.08019249141216278,
          -0.11519719660282135,
          0.1452060341835022,
          -0.11400295794010162,
          -0.09570905566215515,
          -0.14788047969341278,
          -0.11727014929056168,
          0.034800462424755096,
          0.07348210364580154,
          -0.12760798633098602,
          0.012182686477899551,
          -0.11302150785923004,
          0.02898550033569336,
          0.09144281595945358,
          -0.058738525956869125,
          -0.06721141934394836,
          0.09971711039543152,
          -0.09866376966238022,
          -0.03128829970955849,
          -0.1274634599685669,
          0.10727768391370773,
          0.04882783442735672,
          -0.06081880256533623,
          0.1089460700750351,
          0.14495480060577393,
          0.06248993054032326,
          -0.10811164230108261,
          -0.03338250145316124,
          0.12314793467521667,
          0.11125573515892029,
          -0.05033104121685028,
          0.10130627453327179,
          -0.10014783591032028,
          0.04106695204973221,
          0.13495247066020966,
          0.027786429971456528,
          -0.1216498538851738,
          0.04591670259833336,
          0.08532135933637619,
          0.10647270828485489,
          -0.10070478916168213,
          -0.0274811964482069,
          -0.007967839017510414,
          -0.026766084134578705,
          -0.03397594019770622,
          -0.055163219571113586,
          0.052723485976457596,
          0.07275009155273438,
          -0.029735233634710312,
          0.12030374258756638,
          -0.0008227154612541199,
          0.03732040151953697,
          0.038314469158649445,
          -0.052126362919807434
        ],
        [
          -0.006720497738569975,
          -0.017097827047109604,
          0.05789635702967644,
          -0.082248754799366,
          -0.0702764168381691,
          -0.1477738618850708,
          -0.06659848988056183,
          0.04879770427942276,
          0.12374243140220642,
          -0.15092900395393372,
          -0.05507523566484451,
          0.09631780534982681,
          -0.08278897404670715,
          0.10336582362651825,
          0.006178396288305521,
          -0.1439390331506729,
          0.025886191055178642,
          -0.09176372736692429,
          0.029754431918263435,
          -0.13717302680015564,
          0.1438557654619217,
          -0.06531953811645508,
          0.09791186451911926,
          -0.09632262587547302,
          -0.12830768525600433,
          0.06023186072707176,
          0.09203950315713882,
          -0.0013769898796454072,
          -0.12947170436382294,
          -0.04199376702308655,
          -0.10608977824449539,
          0.043366286903619766,
          0.024789340794086456,
          0.10638778656721115,
          0.15282076597213745,
          -0.0707707554101944,
          0.12095601856708527,
          0.10636382550001144,
          0.02353292889893055,
          -0.1500987410545349,
          -0.106181800365448,
          0.06670747697353363,
          0.11376030743122101,
          0.08181748539209366,
          0.014429367147386074,
          -0.09310326725244522,
          -0.13452395796775818,
          -0.08748750388622284,
          0.0011407603742554784,
          0.020179342478513718,
          0.1172502413392067,
          -0.1104174479842186,
          0.08007009327411652,
          0.12968645989894867,
          -0.1383732259273529,
          -0.08157181739807129,
          -0.04272530600428581,
          0.029373077675700188,
          0.1371326744556427,
          0.031243331730365753,
          0.10358540713787079,
          0.12387213110923767,
          0.12018582969903946,
          -0.13962537050247192
        ],
        [
          -0.10002073645591736,
          -0.01000978983938694,
          -0.000558636209461838,
          0.01290599349886179,
          0.1286119669675827,
          0.13866141438484192,
          -0.04479213058948517,
          -0.07077450305223465,
          0.012399990111589432,
          0.019370751455426216,
          0.09441550821065903,
          0.05438988655805588,
          0.04770557954907417,
          0.05025924742221832,
          0.11398228257894516,
          0.09117630869150162,
          -0.015058448538184166,
          -0.10682482272386551,
          0.10323004424571991,
          -0.012481513433158398,
          -0.1096777692437172,
          -0.02551368810236454,
          0.11264584213495255,
          -0.07037100940942764,
          -0.01476173847913742,
          0.051646292209625244,
          0.11008577048778534,
          -0.022912608459591866,
          -0.10996512323617935,
          -0.06399768590927124,
          -0.04941745847463608,
          0.016700923442840576,
          -0.10394929349422455,
          0.13489405810832977,
          0.04036103934049606,
          -0.1102837324142456,
          0.08360426127910614,
          0.007725860457867384,
          0.14978773891925812,
          -0.0030764229595661163,
          -0.0020189196802675724,
          -0.14775358140468597,
          -0.12645341455936432,
          0.0005353855667635798,
          0.12992042303085327,
          -0.0946730524301529,
          0.029974455013871193,
          -0.10550369322299957,
          -0.11865580826997757,
          -0.05629228055477142,
          -0.10249273478984833,
          -0.12666790187358856,
          -0.046991016715765,
          -0.020917577669024467,
          0.07622028142213821,
          0.07038626819849014,
          -0.002009502612054348,
          -0.03496642783284187,
          -0.0325242355465889,
          -0.12574824690818787,
          0.10642153024673462,
          0.1373259276151657,
          -0.14075063169002533,
          -0.14617560803890228
        ],
        [
          -0.1434440165758133,
          -0.02469155564904213,
          -0.00036967446794733405,
          -0.09996354579925537,
          0.08459573984146118,
          0.010082079097628593,
          -0.07749135047197342,
          -0.14810258150100708,
          0.11921542882919312,
          0.15184207260608673,
          0.014214709401130676,
          -0.07332097738981247,
          0.09733129292726517,
          0.09022443741559982,
          -0.021968327462673187,
          0.14356501400470734,
          -0.11312679201364517,
          -0.017544042319059372,
          0.12974046170711517,
          -0.09472637623548508,
          -0.047223467379808426,
          -0.06508849561214447,
          -0.06267139315605164,
          0.13485194742679596,
          0.09436029940843582,
          -0.1391797512769699,
          -0.09363522380590439,
          -0.0019977495539933443,
          -0.049778010696172714,
          -0.08430931717157364,
          -0.15048371255397797,
          0.11290998011827469,
          0.08571481704711914,
          0.04442084953188896,
          -0.03445299714803696,
          -0.14839637279510498,
          -0.009584416635334492,
          0.05852710083127022,
          -0.04443052411079407,
          0.12050607800483704,
          0.0349884033203125,
          -0.007596430368721485,
          0.06050386279821396,
          0.07978122681379318,
          -0.1122879758477211,
          0.04655573144555092,
          -0.13914518058300018,
          -0.03207948058843613,
          -0.04963520169258118,
          0.11689465492963791,
          -0.14746081829071045,
          0.05439167469739914,
          -0.13950137794017792,
          0.06636770069599152,
          0.037493232637643814,
          -0.06024211645126343,
          0.04521920159459114,
          0.14693433046340942,
          0.09320423007011414,
          -0.1396925002336502,
          -0.03967521712183952,
          0.13886849582195282,
          0.023685354739427567,
          0.018874019384384155
        ],
        [
          0.010922807268798351,
          -0.05382530391216278,
          -0.0400477759540081,
          0.010160171426832676,
          0.11524125188589096,
          -0.043149035423994064,
          -0.040063414722681046,
          0.02914276160299778,
          -0.0560329295694828,
          0.13353700935840607,
          0.11516640335321426,
          0.006431598216295242,
          -0.09900077432394028,
          0.04284568130970001,
          0.12983079254627228,
          0.050435032695531845,
          0.06417005509138107,
          -0.08103431761264801,
          -0.15081308782100677,
          -0.057567253708839417,
          0.004892547149211168,
          0.13601873815059662,
          0.03196505084633827,
          -0.02806505560874939,
          -0.038468535989522934,
          -0.02927202731370926,
          -0.0823226273059845,
          -0.06409258395433426,
          0.02844146452844143,
          0.10367647558450699,
          0.1300322264432907,
          0.058955758810043335,
          -0.10578303039073944,
          0.14152736961841583,
          0.1478281021118164,
          -0.0454954169690609,
          0.005278300028294325,
          0.13857954740524292,
          -0.05383513867855072,
          0.07257644087076187,
          0.025464121252298355,
          0.08533809334039688,
          0.05333971977233887,
          0.1518891304731369,
          0.1297459751367569,
          -0.10446111857891083,
          0.09213033318519592,
          -0.03028939850628376,
          -0.08010261505842209,
          0.025677518919110298,
          -0.020837897434830666,
          -0.09976646304130554,
          -0.13513214886188507,
          -0.08532050251960754,
          0.015761882066726685,
          0.09330009669065475,
          0.09021184593439102,
          0.040826160460710526,
          0.1452283412218094,
          -0.131121426820755,
          -0.0963609516620636,
          0.06590034812688828,
          -0.1394447237253189,
          0.14438533782958984
        ],
        [
          0.021108418703079224,
          -0.0564224049448967,
          0.13660366833209991,
          0.0713789090514183,
          0.12875309586524963,
          0.1153368279337883,
          -0.02664431929588318,
          0.13897545635700226,
          0.020217666402459145,
          0.014824263751506805,
          0.053196605294942856,
          -0.1198529452085495,
          -0.0915379524230957,
          0.14486439526081085,
          -0.10018540918827057,
          0.0827217623591423,
          0.09252475947141647,
          -0.12428867071866989,
          -0.017545631155371666,
          -0.0016380578745156527,
          0.1135786846280098,
          -0.041893791407346725,
          0.13827376067638397,
          -0.12846294045448303,
          0.06395641714334488,
          0.08358915150165558,
          -0.05515119060873985,
          -0.05034666508436203,
          -0.09751184284687042,
          0.040616393089294434,
          0.05130362883210182,
          -0.05381049960851669,
          0.12380623072385788,
          -0.023457756265997887,
          -0.02385433204472065,
          0.11956888437271118,
          0.026823900640010834,
          0.08195238560438156,
          0.09023754298686981,
          -0.10020963102579117,
          -0.0019391118548810482,
          0.13520534336566925,
          -0.09466584026813507,
          0.020050624385476112,
          0.11372172832489014,
          0.016903536394238472,
          -0.03432752937078476,
          0.055360812693834305,
          -0.12663060426712036,
          0.12577977776527405,
          0.12026448547840118,
          -0.04287108778953552,
          -0.055382583290338516,
          -0.029946021735668182,
          0.1523233950138092,
          -0.05876637622714043,
          0.04584266245365143,
          -0.14534541964530945,
          0.04627519100904465,
          0.09276001900434494,
          0.049553148448467255,
          -0.007274626288563013,
          0.01117237750440836,
          0.13257522881031036
        ],
        [
          0.06653127074241638,
          -0.03537583351135254,
          -0.12296537309885025,
          0.11157576739788055,
          -0.056997448205947876,
          0.09545023739337921,
          -0.030768170952796936,
          0.0025409096851944923,
          -0.12073464691638947,
          -0.058322805911302567,
          0.012631583958864212,
          -0.1479492485523224,
          -0.031505074352025986,
          0.08895467221736908,
          0.10760080069303513,
          0.11276722699403763,
          -0.04668769612908363,
          0.012051047757267952,
          -0.12284987419843674,
          0.079304039478302,
          0.027106083929538727,
          0.12814299762248993,
          -0.023816371336579323,
          0.14641717076301575,
          0.0758475810289383,
          0.13065148890018463,
          -0.00996325258165598,
          -0.12012091279029846,
          -0.12006298452615738,
          -0.14434979856014252,
          0.025446435436606407,
          -0.11838612705469131,
          -0.05000925809144974,
          0.07779345661401749,
          0.13917528092861176,
          -0.03839612007141113,
          0.10599420219659805,
          -0.011600835248827934,
          -0.030636370182037354,
          -0.01811753399670124,
          -0.06941729038953781,
          0.0419011116027832,
          -0.0008287197561003268,
          -0.07459203898906708,
          0.09737615287303925,
          -0.06839258223772049,
          -0.10368667542934418,
          0.05314555764198303,
          -0.009400947950780392,
          -0.08427608758211136,
          -0.12497471272945404,
          -0.04586830362677574,
          -0.11721830070018768,
          0.0832667276263237,
          -0.019069187343120575,
          0.07885172963142395,
          0.0745205357670784,
          0.012331114150583744,
          -0.023571327328681946,
          -0.07895703613758087,
          0.03446588292717934,
          -0.13312171399593353,
          -0.07460089027881622,
          0.1220865249633789
        ],
        [
          -0.02971493825316429,
          0.12350375205278397,
          0.09065773338079453,
          -0.03227291256189346,
          -0.12322359532117844,
          0.12294799834489822,
          0.012896868400275707,
          0.14467878639698029,
          -0.13845928013324738,
          0.03154834732413292,
          -0.1319034844636917,
          -0.018587328493595123,
          -0.1341879814863205,
          -0.13934175670146942,
          0.0077230315655469894,
          0.15093101561069489,
          0.011730484664440155,
          -0.014183556661009789,
          0.14270441234111786,
          0.014013830572366714,
          -0.08548194169998169,
          0.09734994173049927,
          0.10923938453197479,
          0.13274680078029633,
          0.12039534002542496,
          0.14230990409851074,
          -0.05677955970168114,
          0.02201300486922264,
          -0.055864132940769196,
          -0.020378176122903824,
          0.12103721499443054,
          -0.12096357345581055,
          0.08365990966558456,
          -0.08845455944538116,
          0.0008395420736633241,
          -0.01822756417095661,
          -0.0689573884010315,
          0.013055023737251759,
          -0.07755059003829956,
          0.13866329193115234,
          -0.05542163923382759,
          0.09689989686012268,
          -0.036466460675001144,
          -0.12053478509187698,
          0.11884329468011856,
          -0.042272720485925674,
          -0.06342154741287231,
          0.011477300897240639,
          -0.0015597466845065355,
          0.04320000857114792,
          -0.03714461997151375,
          -0.0441703125834465,
          0.08376256376504898,
          0.07016963511705399,
          0.13531795144081116,
          0.016895579174160957,
          -0.039742376655340195,
          -0.032615721225738525,
          -0.031197724863886833,
          -0.04838158190250397,
          -0.05224797874689102,
          -0.04313439875841141,
          0.046169742941856384,
          0.060574907809495926
        ],
        [
          0.11652311682701111,
          -0.14897970855236053,
          0.11871816962957382,
          -0.030843928456306458,
          -0.14960028231143951,
          0.10008390247821808,
          -0.08679714053869247,
          -0.0689879059791565,
          0.05080956220626831,
          0.02507699839770794,
          0.10435941070318222,
          -0.10682186484336853,
          0.08316981792449951,
          0.0797959566116333,
          0.0947616770863533,
          -0.05095583572983742,
          0.02600027248263359,
          0.04506221413612366,
          0.14434778690338135,
          -0.09303068369626999,
          -0.14056864380836487,
          -0.13845734298229218,
          0.02027604915201664,
          -0.11635291576385498,
          -0.028340119868516922,
          -0.07156575471162796,
          0.02773275598883629,
          -0.10848450660705566,
          0.09440893679857254,
          -0.15039674937725067,
          -0.08387361466884613,
          0.031590815633535385,
          -0.15058033168315887,
          0.037734609097242355,
          -0.05727459490299225,
          -0.07732001692056656,
          0.10974173992872238,
          -0.04943278804421425,
          0.03619079291820526,
          -0.05911349505186081,
          0.0716175064444542,
          0.13941669464111328,
          0.14695985615253448,
          -0.09260593354701996,
          -0.15218104422092438,
          -0.10705499351024628,
          0.04312737286090851,
          0.06145931035280228,
          0.08040662109851837,
          0.06647958606481552,
          0.14893215894699097,
          -0.11609427630901337,
          -0.12002197653055191,
          -0.047941334545612335,
          0.11882621049880981,
          -0.11755578219890594,
          0.11478079855442047,
          0.025473445653915405,
          0.09469849616289139,
          0.15167666971683502,
          0.1490097939968109,
          0.14697040617465973,
          -0.03756922483444214,
          -0.06532745808362961
        ],
        [
          0.0649934634566307,
          0.13055412471294403,
          0.0038117021322250366,
          -0.03623957559466362,
          -0.02476109005510807,
          -0.05464433133602142,
          0.07350970059633255,
          -0.15226319432258606,
          0.13026991486549377,
          -0.0056220595724880695,
          -0.09280631691217422,
          -0.054608818143606186,
          -0.09397633373737335,
          -0.13302570581436157,
          0.01540458109229803,
          -0.0347687266767025,
          -0.06872212886810303,
          -0.026072779670357704,
          -0.02110779844224453,
          0.0674474686384201,
          -0.12383871525526047,
          -0.003589543281123042,
          -0.002089328598231077,
          -0.12515100836753845,
          0.14112098515033722,
          -0.072575643658638,
          0.12146101891994476,
          0.11734357476234436,
          0.004146226681768894,
          0.1139923557639122,
          -0.11520224809646606,
          -0.0168283823877573,
          -0.12628516554832458,
          -0.0931972935795784,
          0.04836873337626457,
          0.11407794803380966,
          -0.0908496156334877,
          -0.061858732253313065,
          -0.08583951741456985,
          -0.013300999067723751,
          -0.12716227769851685,
          -0.12117397785186768,
          -0.03330636024475098,
          0.14709264039993286,
          0.02637261152267456,
          -0.06372594088315964,
          0.10234423726797104,
          0.1129913404583931,
          0.10463009774684906,
          0.0014249146915972233,
          -0.016585564240813255,
          0.0994386300444603,
          0.08229567110538483,
          0.11608067899942398,
          0.11026009917259216,
          -0.043455347418785095,
          0.12966740131378174,
          0.029952682554721832,
          0.1524168998003006,
          0.15229973196983337,
          0.12839534878730774,
          0.10190834850072861,
          0.12020479142665863,
          -0.07195639610290527
        ],
        [
          -0.0595984011888504,
          -0.035678476095199585,
          -0.07835746556520462,
          0.11247885972261429,
          0.014311599545180798,
          -0.038774389773607254,
          -0.06859081983566284,
          -0.1363009214401245,
          0.010984583757817745,
          0.13457463681697845,
          0.10066314041614532,
          0.12133961915969849,
          0.10459902137517929,
          0.06442148983478546,
          -0.004408517386764288,
          -0.11325445026159286,
          0.11256030946969986,
          -0.10772933810949326,
          -0.0920601487159729,
          0.061431460082530975,
          0.0840778723359108,
          -0.07966779917478561,
          0.09688664972782135,
          -0.1432749629020691,
          0.036482248455286026,
          0.0675855278968811,
          0.028436262160539627,
          -0.08614655584096909,
          -0.10339058935642242,
          0.1223587617278099,
          0.03372728452086449,
          -0.06576978415250778,
          0.14745798707008362,
          -0.031955379992723465,
          -0.028309952467679977,
          0.03940517082810402,
          0.12745776772499084,
          -0.06814940273761749,
          0.0007718158885836601,
          -0.06873046606779099,
          -0.0693422481417656,
          -0.02086850255727768,
          -0.00015771754260640591,
          0.08208846300840378,
          -0.11435126513242722,
          0.08884069323539734,
          0.11960717290639877,
          -0.01745273731648922,
          -0.013713762164115906,
          0.03775349631905556,
          -0.14015977084636688,
          0.11264880001544952,
          -0.026781214401125908,
          0.00615702522918582,
          0.0725802555680275,
          0.06374699622392654,
          -0.07083676755428314,
          -0.11244938522577286,
          -0.14768992364406586,
          -0.12783722579479218,
          -0.032182976603507996,
          -0.1188497543334961,
          -0.015458254143595695,
          -0.08088143914937973
        ],
        [
          0.08674769848585129,
          0.1047171875834465,
          0.1295175850391388,
          -0.1003912016749382,
          -0.10803967714309692,
          0.05310755968093872,
          -0.03496057167649269,
          0.1161029115319252,
          -0.14044716954231262,
          0.14196883141994476,
          -0.10618820041418076,
          -0.12276770919561386,
          -0.016234248876571655,
          -0.06782102584838867,
          -0.09650865197181702,
          0.0874021127820015,
          0.11823727935552597,
          0.08523595333099365,
          0.01868666522204876,
          -0.02203025110065937,
          -0.0835297480225563,
          0.1459166556596756,
          -0.08338290452957153,
          -0.13422854244709015,
          0.12988761067390442,
          -0.012346736155450344,
          0.10286653786897659,
          -0.0508134663105011,
          0.11923979967832565,
          -0.10795693099498749,
          0.0921289324760437,
          0.11915425956249237,
          -0.002140337834134698,
          0.10152590274810791,
          0.0054326048120856285,
          -0.14016883075237274,
          0.06706923246383667,
          -0.11901455372571945,
          0.004811188206076622,
          -0.13771118223667145,
          -0.07289034873247147,
          -0.04561599716544151,
          -0.059494756162166595,
          -0.15080536901950836,
          -0.07603923976421356,
          -0.14185218513011932,
          -0.12798811495304108,
          -0.15273766219615936,
          -0.08819185197353363,
          -0.03430570289492607,
          0.13791784644126892,
          -0.10770303755998611,
          -0.11641756445169449,
          -0.12462735921144485,
          0.14322444796562195,
          -0.019578328356146812,
          -0.040731899440288544,
          0.08393977582454681,
          -0.09045492112636566,
          -0.040459971874952316,
          0.140321284532547,
          0.08153953403234482,
          -0.11875921487808228,
          -0.04207655042409897
        ],
        [
          0.015033701434731483,
          0.05531347170472145,
          -0.07043329626321793,
          0.10719449818134308,
          0.0023941239342093468,
          -0.1323677897453308,
          0.04102271422743797,
          -0.14861635863780975,
          0.010658252984285355,
          -0.1514134407043457,
          -0.04366900026798248,
          -0.03557965159416199,
          -0.13751859962940216,
          -0.04330262914299965,
          0.005140986293554306,
          -0.08625496178865433,
          0.021725965663790703,
          0.08084297925233841,
          0.01806814968585968,
          -0.15026997029781342,
          -0.00048375598271377385,
          -0.07174620777368546,
          0.043637827038764954,
          -0.12283645570278168,
          -0.10589981824159622,
          -0.005082275718450546,
          0.08828005194664001,
          -0.04089939966797829,
          -0.008072941564023495,
          -0.015161525458097458,
          -0.11978729814291,
          -0.012112350203096867,
          -0.004308762494474649,
          0.025340458378195763,
          0.06852084398269653,
          0.04559271037578583,
          0.0853755846619606,
          -0.029185594990849495,
          -0.06613471359014511,
          0.1300147920846939,
          0.12206478416919708,
          0.08346828073263168,
          0.11152280867099762,
          0.07498066127300262,
          0.13533028960227966,
          0.13317547738552094,
          -0.12447425723075867,
          -0.14427000284194946,
          -0.07942823320627213,
          0.11705240607261658,
          0.13823121786117554,
          0.009986813180148602,
          -0.11319345980882645,
          -0.07195352762937546,
          0.07277770340442657,
          0.14260554313659668,
          0.02965237759053707,
          -0.10068504512310028,
          0.1452544629573822,
          0.13443081080913544,
          -0.06716115772724152,
          -0.08272186666727066,
          0.08801456540822983,
          -0.11063002794981003
        ],
        [
          0.1277896910905838,
          -0.030904298648238182,
          -0.002083634724840522,
          -0.08178753405809402,
          -0.15134920179843903,
          0.034636594355106354,
          -0.054544851183891296,
          -0.08976534008979797,
          0.12203235924243927,
          0.02838873863220215,
          -0.041049178689718246,
          -0.14118026196956635,
          -0.0861818939447403,
          -0.0499735027551651,
          0.06435653567314148,
          -0.139531672000885,
          0.08841722458600998,
          0.1392558366060257,
          0.047374285757541656,
          -0.15200215578079224,
          0.01997309736907482,
          -0.06178116798400879,
          0.04842720925807953,
          -0.005722617730498314,
          0.07490578293800354,
          -0.01245561707764864,
          0.02761394903063774,
          0.06099378690123558,
          -0.11342623829841614,
          0.025530988350510597,
          0.13642369210720062,
          0.10689886659383774,
          0.009529373608529568,
          -0.026921594515442848,
          0.06330204010009766,
          -0.13462527096271515,
          -0.04611010104417801,
          0.13278813660144806,
          0.019701462239027023,
          -0.0019805943593382835,
          -0.12050171941518784,
          -0.09922386705875397,
          0.02117227576673031,
          -0.11507878452539444,
          -0.044270213693380356,
          -0.07541793584823608,
          0.0471796840429306,
          0.023387640714645386,
          -0.14781638979911804,
          0.050529200583696365,
          -0.013802986592054367,
          -0.07416754215955734,
          0.11277876049280167,
          -0.10078700631856918,
          -0.13964113593101501,
          0.016690922901034355,
          -0.08309298753738403,
          -0.06217024475336075,
          -0.13388623297214508,
          -0.038047708570957184,
          0.12163107097148895,
          -0.1389024257659912,
          -0.10352201014757156,
          -0.03350187465548515
        ],
        [
          -0.12116021662950516,
          0.028656961396336555,
          -0.030422460287809372,
          0.11581136286258698,
          -0.15214945375919342,
          0.005125236231833696,
          0.06750902533531189,
          0.019873706623911858,
          -0.041692037135362625,
          0.14357301592826843,
          -0.11883498728275299,
          0.14258965849876404,
          0.04167935252189636,
          0.07289864867925644,
          0.10792534053325653,
          0.015236551873385906,
          0.016233354806900024,
          -0.031042398884892464,
          -0.1388799399137497,
          0.06449074298143387,
          0.11449969559907913,
          0.0640113353729248,
          -0.023887712508440018,
          -0.13704288005828857,
          -0.0025304704904556274,
          0.039813242852687836,
          -0.11982781440019608,
          0.13018110394477844,
          -0.0040314700454473495,
          0.04181351140141487,
          0.13505645096302032,
          0.06646044552326202,
          -0.08295536041259766,
          0.05645693466067314,
          0.09001690149307251,
          0.07638084888458252,
          -0.07192761451005936,
          0.01555001549422741,
          -0.11000063270330429,
          -0.017199918627738953,
          -0.1062343418598175,
          0.08751779794692993,
          0.14978961646556854,
          -0.14827075600624084,
          -0.07152687758207321,
          -0.0647561177611351,
          -0.10719918459653854,
          0.13930603861808777,
          -0.11825525760650635,
          -0.08003822714090347,
          -0.12717939913272858,
          -0.000507919117808342,
          -0.1133180484175682,
          -0.10312526673078537,
          0.15223443508148193,
          0.06841111183166504,
          0.06494886428117752,
          0.10857309401035309,
          0.02645293064415455,
          0.024842722341418266,
          -0.11498572677373886,
          0.043008819222450256,
          -0.11960583925247192,
          -0.0006660929066129029
        ],
        [
          -0.08261527121067047,
          -0.08677591383457184,
          -0.08963590860366821,
          -0.07411020249128342,
          -0.09104722738265991,
          -0.08372465521097183,
          -0.0557672418653965,
          -0.1398826241493225,
          0.12254253774881363,
          0.05144539475440979,
          -0.1522752195596695,
          -0.15301759541034698,
          -0.07710033655166626,
          0.05907389149069786,
          0.14012664556503296,
          -0.023847488686442375,
          0.09108977019786835,
          -0.08257384598255157,
          -0.03177610784769058,
          -0.023733224719762802,
          -0.1490497589111328,
          0.0007986983400769532,
          0.040518589317798615,
          0.09331180900335312,
          -0.11845527589321136,
          -0.04609566554427147,
          0.005775469820946455,
          0.016239961609244347,
          0.025818774476647377,
          -0.11372249573469162,
          0.11881894618272781,
          -0.1383415162563324,
          -0.05314778536558151,
          0.07629036158323288,
          -0.03818131610751152,
          -0.07376609742641449,
          -0.15103203058242798,
          0.10544208437204361,
          -0.003437519771978259,
          0.0739474669098854,
          0.024424247443675995,
          -0.11385161429643631,
          -0.05409640818834305,
          0.10916025191545486,
          -0.07497072964906693,
          -0.07053805142641068,
          0.08395320177078247,
          -0.06635048985481262,
          0.024991551414132118,
          -0.07442563772201538,
          0.047124605625867844,
          0.015573358163237572,
          -0.12151885032653809,
          -0.11611635982990265,
          0.056293632835149765,
          -0.05013726279139519,
          0.08386167883872986,
          0.007966944947838783,
          -0.0523533932864666,
          -0.026640085503458977,
          -0.06975026428699493,
          0.07554444670677185,
          0.12143442779779434,
          -0.004768300335854292
        ],
        [
          -0.09869548678398132,
          0.11005418002605438,
          0.12457253783941269,
          0.10436547547578812,
          -0.0027708611451089382,
          0.03763333708047867,
          0.007786852307617664,
          -0.058148447424173355,
          -0.15158914029598236,
          -0.0187123604118824,
          0.06621333956718445,
          0.08930113166570663,
          0.03641156479716301,
          0.06981142610311508,
          0.09582963585853577,
          -0.02959662303328514,
          0.09996949136257172,
          -0.0032156165689229965,
          -0.05421842634677887,
          -0.05944984406232834,
          -0.08922314643859863,
          -0.11791206151247025,
          0.0350707471370697,
          0.1414659023284912,
          0.021763324737548828,
          0.020691148936748505,
          -0.057431746274232864,
          -0.06034860759973526,
          -0.04798300191760063,
          0.05299121513962746,
          0.02639423869550228,
          -0.05624902620911598,
          0.029997851699590683,
          -0.026747871190309525,
          -0.010428100824356079,
          0.10855301469564438,
          -0.0637936070561409,
          0.14284473657608032,
          -0.08373690396547318,
          0.14183545112609863,
          0.05751335993409157,
          0.06147133558988571,
          -0.0350198857486248,
          -0.0417209267616272,
          -0.11198214441537857,
          -0.14681276679039001,
          0.10718845576047897,
          0.14850516617298126,
          0.04390092194080353,
          -0.059882719069719315,
          0.03362329304218292,
          -0.005733530968427658,
          -0.13233523070812225,
          -0.12260890007019043,
          0.05315367877483368,
          -0.04469954967498779,
          -0.036412715911865234,
          -0.09230338037014008,
          0.06751649081707001,
          -0.07725511491298676,
          -0.048891581594944,
          0.08190937340259552,
          0.1471727341413498,
          0.13648170232772827
        ],
        [
          0.06026551499962807,
          0.0054382807575166225,
          0.11506184935569763,
          0.13535642623901367,
          0.06872997432947159,
          0.045003194361925125,
          0.03691605478525162,
          0.015578394755721092,
          0.10104736685752869,
          0.043306589126586914,
          -0.1290791779756546,
          -0.09043365716934204,
          -0.1390278935432434,
          -0.04601045325398445,
          0.007824648171663284,
          -0.06490686535835266,
          -0.14079596102237701,
          -0.09956593066453934,
          0.06515508890151978,
          -0.010784178972244263,
          -0.025666167959570885,
          0.0247859638184309,
          -0.03233828395605087,
          -0.08343163132667542,
          -0.07025270909070969,
          -0.06240076199173927,
          -0.14329929649829865,
          -0.1411864459514618,
          -0.05800437927246094,
          0.0574498325586319,
          0.14971864223480225,
          -0.004143617115914822,
          0.10454704612493515,
          0.05062103644013405,
          -0.12193026393651962,
          -0.07659050077199936,
          -0.04200586676597595,
          -0.12618112564086914,
          0.021441081538796425,
          0.03636462613940239,
          -0.11934143304824829,
          -0.03222141042351723,
          -0.1350376158952713,
          0.15245267748832703,
          0.09054961800575256,
          -0.057750154286623,
          0.1316116750240326,
          -0.09582237154245377,
          0.12879560887813568,
          -0.05891657620668411,
          0.04473066329956055,
          0.10638413578271866,
          0.07127608358860016,
          0.03709913790225983,
          -0.017653688788414,
          0.0011269997339695692,
          0.13071945309638977,
          -0.05003133788704872,
          -0.04967128112912178,
          0.019563838839530945,
          -0.07428142428398132,
          -0.057880699634552,
          0.011962881311774254,
          0.11513762176036835
        ],
        [
          0.049915723502635956,
          -0.09459731727838516,
          0.09244142472743988,
          -0.05638137832283974,
          0.03948138281702995,
          0.00901541393250227,
          0.10933700948953629,
          -0.034194521605968475,
          -0.062205009162425995,
          -0.03049744851887226,
          0.0013913892908021808,
          -0.07224691659212112,
          0.10522271692752838,
          -0.08207913488149643,
          0.02421867847442627,
          -0.11754076182842255,
          -0.01900947280228138,
          -0.03298691287636757,
          -0.061246439814567566,
          0.08003087341785431,
          -0.13669843971729279,
          0.016057442873716354,
          -0.014321453869342804,
          -0.07961918413639069,
          0.11905524879693985,
          0.09610658138990402,
          0.04626327380537987,
          0.0029781826306134462,
          0.08485309779644012,
          -0.0672471895813942,
          -0.12457697093486786,
          0.14690814912319183,
          -0.05730917677283287,
          0.030709078535437584,
          0.003057388123124838,
          0.1288841813802719,
          0.15227903425693512,
          -0.10300011187791824,
          -0.0016327835619449615,
          -0.1241152286529541,
          0.09887917339801788,
          0.14617085456848145,
          -0.0585191436111927,
          0.02774699218571186,
          -0.0337081216275692,
          -0.037088390439748764,
          0.12156070023775101,
          -0.14224237203598022,
          -0.02096380479633808,
          -0.0006278224173001945,
          -0.13502328097820282,
          0.06295069307088852,
          0.10209229588508606,
          -0.12161076068878174,
          0.059234511107206345,
          -0.009905034676194191,
          0.14343126118183136,
          -0.14427024126052856,
          0.12997420132160187,
          -0.05687436833977699,
          0.1290544867515564,
          -0.07809341698884964,
          0.025930264964699745,
          0.03571318835020065
        ],
        [
          0.09497679024934769,
          0.07175607979297638,
          0.08555871993303299,
          -0.03222683072090149,
          -0.12112260609865189,
          0.0017776712775230408,
          0.13964033126831055,
          0.1324261873960495,
          -0.09007883816957474,
          0.10531453043222427,
          0.06885454803705215,
          -0.027702389284968376,
          0.08356524258852005,
          -0.006384732201695442,
          0.018641330301761627,
          -0.10031536966562271,
          -0.018853140994906425,
          0.14986532926559448,
          0.09484101086854935,
          -0.12372530996799469,
          -0.008670961484313011,
          0.09751817584037781,
          -0.06551455706357956,
          -0.019175639376044273,
          0.07636284828186035,
          0.12866730988025665,
          0.1388983130455017,
          -0.11059814691543579,
          -0.14425507187843323,
          0.10819199681282043,
          -0.011857870034873486,
          0.1382199227809906,
          0.1086665689945221,
          -0.05976695939898491,
          0.043859295547008514,
          0.051506150513887405,
          -0.05479506030678749,
          0.13754893839359283,
          0.012562142685055733,
          -0.05003659427165985,
          -0.13983535766601562,
          0.12252379953861237,
          -0.15180715918540955,
          0.11652622371912003,
          -0.05361805483698845,
          -0.028026821091771126,
          0.020680727437138557,
          0.15049238502979279,
          -0.1007799282670021,
          -0.10872721672058105,
          0.09202159941196442,
          -0.07435515522956848,
          -0.05633878335356712,
          0.08850274235010147,
          -0.06345932185649872,
          0.09118757396936417,
          -0.05970844626426697,
          0.1177595853805542,
          0.15250998735427856,
          0.021175505593419075,
          -0.05096623674035072,
          0.08611837774515152,
          0.042790841311216354,
          0.000664541672449559
        ],
        [
          0.13658244907855988,
          -0.008855068124830723,
          0.053812891244888306,
          -0.045594461262226105,
          -0.027775296941399574,
          -0.006589863449335098,
          0.010300915688276291,
          0.0669507160782814,
          0.11548537760972977,
          0.09385135769844055,
          -0.06439170241355896,
          0.13722267746925354,
          0.10340830683708191,
          0.05518864095211029,
          0.01670762151479721,
          -0.08664184808731079,
          -0.09137275815010071,
          0.0007675270899198949,
          -0.1138739138841629,
          0.05370600149035454,
          -0.13896839320659637,
          -0.1365150660276413,
          -0.06876309961080551,
          0.0880880281329155,
          0.11987174302339554,
          -0.12867867946624756,
          -0.09668326377868652,
          0.03396294638514519,
          -0.027902793139219284,
          -0.12546057999134064,
          0.04252906143665314,
          -0.12743070721626282,
          0.009581404738128185,
          0.06240716576576233,
          0.14121364057064056,
          -0.13065536320209503,
          0.11431410908699036,
          0.021302856504917145,
          0.13329151272773743,
          0.15069662034511566,
          -0.03818213567137718,
          -0.02384352870285511,
          -0.03700854629278183,
          0.12040606886148453,
          -0.06629559397697449,
          0.101103775203228,
          0.06296450644731522,
          0.14394792914390564,
          0.10843642055988312,
          0.12424564361572266,
          -0.1258356273174286,
          -0.08057966828346252,
          -0.10862065106630325,
          0.07601641118526459,
          0.031144142150878906,
          0.05835375934839249,
          0.05746034160256386,
          0.006479778792709112,
          0.05842243507504463,
          -0.08301544189453125,
          0.09946350753307343,
          -0.13180124759674072,
          -0.14067086577415466,
          0.05199246108531952
        ],
        [
          0.14372672140598297,
          -0.05600743368268013,
          0.1442100554704666,
          -0.05434358865022659,
          -0.11633706092834473,
          -0.023802611976861954,
          0.08466734737157822,
          -0.07968636602163315,
          0.1435682624578476,
          -0.06846359372138977,
          -0.06776432693004608,
          -0.06375986337661743,
          -0.116602323949337,
          0.14280955493450165,
          -0.08649396896362305,
          -0.06887854635715485,
          -0.04638709872961044,
          0.12887334823608398,
          0.07141996920108795,
          0.05636712536215782,
          -0.04025774076581001,
          0.07736954838037491,
          0.027771610766649246,
          0.12197604030370712,
          0.03398546576499939,
          0.1123647391796112,
          0.10565320402383804,
          0.026753127574920654,
          -0.14670434594154358,
          0.031149782240390778,
          -0.11550908535718918,
          0.026302915066480637,
          -0.017144419252872467,
          0.1218109279870987,
          -0.1098892018198967,
          -0.12798742949962616,
          0.06823461502790451,
          0.1010817438364029,
          -0.03331981226801872,
          0.041436225175857544,
          0.1228659525513649,
          0.015228630974888802,
          -0.04278947040438652,
          0.08851918578147888,
          0.13797666132450104,
          -0.025986403226852417,
          0.10387436300516129,
          0.01277316827327013,
          -0.03205571696162224,
          -0.013361151330173016,
          -0.14861920475959778,
          0.07344263046979904,
          -0.08332788199186325,
          -0.13038338720798492,
          -0.02122516557574272,
          -0.06237524747848511,
          -0.09744272381067276,
          -0.03223031759262085,
          -0.016157416626811028,
          0.046529870480298996,
          0.020982785150408745,
          -0.020454755052924156,
          0.03370039910078049,
          -0.09905663877725601
        ],
        [
          0.12954053282737732,
          0.07496453076601028,
          0.0968506932258606,
          -0.13655029237270355,
          0.10449813306331635,
          0.027061188593506813,
          -0.14794401824474335,
          0.1453666388988495,
          -0.0032037359196692705,
          0.029360704123973846,
          0.1266542375087738,
          0.09872698783874512,
          0.13620305061340332,
          -0.14289164543151855,
          0.15135329961776733,
          0.03729085624217987,
          0.0019882412161678076,
          -0.1202881708741188,
          -0.08232662826776505,
          0.14862602949142456,
          0.11382706463336945,
          0.11933805793523788,
          -0.012865623459219933,
          -0.08527696132659912,
          0.03574634715914726,
          -0.07294951379299164,
          -0.09965493530035019,
          0.04944388568401337,
          0.12007975578308105,
          -0.11744440346956253,
          -0.13532230257987976,
          0.02068445086479187,
          -0.05394018813967705,
          -0.08186457306146622,
          -0.03133509308099747,
          -0.008853316307067871,
          -0.04245845228433609,
          0.11337178200483322,
          0.08483486622571945,
          0.048151832073926926,
          -0.04909264296293259,
          -0.013645980507135391,
          0.0992533415555954,
          0.01269354298710823,
          -0.14769352972507477,
          0.014546386897563934,
          0.08016441017389297,
          -0.039269059896469116,
          -0.02857978083193302,
          -0.020769350230693817,
          0.09408147633075714,
          0.12641365826129913,
          -0.12014219164848328,
          0.1008659228682518,
          0.06269077211618423,
          0.05359215661883354,
          -0.0869651660323143,
          -0.0874011293053627,
          0.15201641619205475,
          0.0391770601272583,
          -0.03407149761915207,
          -0.03100786916911602,
          0.10249766707420349,
          -0.03813667595386505
        ],
        [
          0.10343349725008011,
          -0.04340579733252525,
          0.036187198013067245,
          0.04033008590340614,
          -0.07841936498880386,
          0.003784199245274067,
          0.030578114092350006,
          -0.14972570538520813,
          -0.0301502775400877,
          0.014575605280697346,
          0.1260928064584732,
          0.03390135243535042,
          -0.1301230788230896,
          -0.04487082362174988,
          0.15157316625118256,
          -0.01992214284837246,
          0.11549543589353561,
          0.017564866691827774,
          0.10045554488897324,
          -0.06578955054283142,
          0.15039756894111633,
          0.03230990469455719,
          -0.031342849135398865,
          0.11771427094936371,
          0.07549573481082916,
          -0.10290482640266418,
          -0.011007779277861118,
          0.1097259372472763,
          0.03814154863357544,
          -0.048417169600725174,
          -0.09967539459466934,
          -0.10720502585172653,
          0.08510144799947739,
          0.06927435845136642,
          -0.13566051423549652,
          -0.03143417462706566,
          0.0387466698884964,
          -0.13545165956020355,
          0.13193531334400177,
          -0.016327233985066414,
          -0.06219037249684334,
          0.0170464888215065,
          0.05530799552798271,
          0.03401952236890793,
          0.14518336951732635,
          0.08618327975273132,
          -0.014827894978225231,
          0.02606097236275673,
          0.03709718585014343,
          -0.06072012335062027,
          -0.13118326663970947,
          -0.016284966841340065,
          -0.058313336223363876,
          -0.14461663365364075,
          0.05459742993116379,
          -0.06423468142747879,
          0.14657312631607056,
          0.05475235357880592,
          0.06519675254821777,
          0.04462109133601189,
          0.05970631167292595,
          0.09802315384149551,
          0.11246613413095474,
          -0.00836561806499958
        ],
        [
          -0.04339977353811264,
          0.041478127241134644,
          -0.06907643377780914,
          -0.007778968196362257,
          0.04470016807317734,
          0.06840682029724121,
          -0.14808282256126404,
          0.059280116111040115,
          -0.05927455052733421,
          -0.10783250629901886,
          -0.06519817560911179,
          -0.0033029981423169374,
          0.0753939151763916,
          -0.1363491415977478,
          0.041584379971027374,
          0.1379346400499344,
          -0.08649332821369171,
          0.03658267855644226,
          -0.061546143144369125,
          0.037638355046510696,
          0.06629179418087006,
          -0.094307079911232,
          0.036634162068367004,
          0.15131650865077972,
          0.010741546750068665,
          -0.10866980254650116,
          0.0019149305298924446,
          0.03376119211316109,
          0.047139789909124374,
          -0.011036468669772148,
          -0.032809704542160034,
          -0.07611975818872452,
          0.0989285409450531,
          -0.08648224920034409,
          -0.0521092414855957,
          0.10157723724842072,
          -0.07194467633962631,
          -0.01998205855488777,
          -0.06103804334998131,
          -0.13569852709770203,
          0.07379916310310364,
          -0.06797903776168823,
          -0.07064706087112427,
          -0.0337340347468853,
          0.04194524139165878,
          0.13442230224609375,
          0.13541316986083984,
          0.002091263188049197,
          -0.13130280375480652,
          0.01129687950015068,
          0.003537585260346532,
          0.12929357588291168,
          -0.03164304420351982,
          -0.14385028183460236,
          0.05561887100338936,
          -0.03357500210404396,
          0.053419072180986404,
          0.046064309775829315,
          0.05457138642668724,
          0.08468377590179443,
          -0.10732650011777878,
          -0.12469937652349472,
          0.14333614706993103,
          0.13993065059185028
        ],
        [
          -0.060433633625507355,
          0.14658495783805847,
          0.030222967267036438,
          -0.040227483958005905,
          -0.08291275054216385,
          -0.08147083967924118,
          0.12284082174301147,
          -0.0941004753112793,
          -0.0627952367067337,
          0.15240392088890076,
          -0.07478737086057663,
          0.15063245594501495,
          0.06837093830108643,
          0.0759497582912445,
          0.03486379235982895,
          -0.027405623346567154,
          0.06825599819421768,
          0.045599352568387985,
          -0.0835234671831131,
          -0.12611795961856842,
          -0.12442419677972794,
          -0.018528180196881294,
          0.04378470405936241,
          -0.09703531116247177,
          0.028205398470163345,
          0.08819011598825455,
          0.09004321694374084,
          -0.05720745027065277,
          0.035094380378723145,
          -0.13573867082595825,
          0.11014045029878616,
          -0.12235171347856522,
          0.008497074246406555,
          -0.048093393445014954,
          -0.12693551182746887,
          -0.13270090520381927,
          -0.09834986925125122,
          -0.11114054173231125,
          0.11682972311973572,
          -0.023516302928328514,
          -0.10220982134342194,
          0.0005521939019672573,
          -0.06911096721887589,
          -0.02216898836195469,
          0.1316598802804947,
          -0.13511204719543457,
          -0.1329948604106903,
          0.037519421428442,
          0.10670728981494904,
          -0.1454494297504425,
          0.04809757322072983,
          0.15167805552482605,
          -0.024595724418759346,
          -0.09033495932817459,
          0.07510554790496826,
          0.0864727646112442,
          -0.01589326374232769,
          -0.12486139684915543,
          0.005937293637543917,
          -0.09914299845695496,
          -0.1306961625814438,
          0.09555373340845108,
          0.1051444262266159,
          0.06146369129419327
        ],
        [
          -0.12491835653781891,
          0.12983264029026031,
          0.11215516924858093,
          0.13157479465007782,
          -0.010175719857215881,
          -0.028352949768304825,
          -0.13730208575725555,
          0.11297301203012466,
          -0.00802755355834961,
          -0.1530763804912567,
          0.1496887058019638,
          -0.019794227555394173,
          0.09207753837108612,
          -0.022597337141633034,
          -0.024084266275167465,
          0.13467012345790863,
          0.12710987031459808,
          -0.07145216315984726,
          0.004783192649483681,
          0.10398811846971512,
          0.007357664406299591,
          -0.0275886170566082,
          0.1367768794298172,
          0.13632431626319885,
          -0.04103744029998779,
          0.1159115731716156,
          -0.01516283955425024,
          0.004549116361886263,
          0.12280701845884323,
          -0.01187774445861578,
          -0.015228795818984509,
          -0.033266615122556686,
          -0.1278199404478073,
          0.11853983253240585,
          -0.12010780721902847,
          -0.11750716716051102,
          0.02072065882384777,
          -0.016122467815876007,
          0.006001023110002279,
          0.012044843286275864,
          0.1517329216003418,
          -0.14864233136177063,
          -0.09204598516225815,
          0.028240583837032318,
          -0.13628914952278137,
          -0.12094791978597641,
          0.11730705201625824,
          0.0592789500951767,
          -0.047487471252679825,
          0.04040024057030678,
          0.026776067912578583,
          -0.015082776546478271,
          0.1271301507949829,
          -4.0862021705834195e-05,
          0.1086113452911377,
          -0.11916619539260864,
          -0.06220296397805214,
          0.025893745943903923,
          0.08177819103002548,
          -0.06229023635387421,
          0.11044519394636154,
          -0.12700839340686798,
          -0.05839766934514046,
          0.11509349942207336
        ],
        [
          -0.11438988149166107,
          -0.1435803472995758,
          -0.038641657680273056,
          -0.12754715979099274,
          0.045541152358055115,
          -0.026916446164250374,
          -0.04506409540772438,
          0.08466339111328125,
          0.00890699028968811,
          -0.1380224972963333,
          -0.1450732946395874,
          0.09614888578653336,
          0.06602158397436142,
          0.08412886410951614,
          -0.13002251088619232,
          -0.029584195464849472,
          0.13079898059368134,
          0.12365803867578506,
          0.104078508913517,
          0.14212185144424438,
          -0.04797389358282089,
          -0.11851727217435837,
          0.08606209605932236,
          0.09761197865009308,
          -0.04623283073306084,
          -0.014291761443018913,
          -0.0073725017718970776,
          -0.13580527901649475,
          -0.06341052055358887,
          -0.04851112142205238,
          0.05715213343501091,
          -0.04466863349080086,
          0.06909424811601639,
          0.13785207271575928,
          -0.032634466886520386,
          -0.037316132336854935,
          -0.09615758806467056,
          -0.011683727614581585,
          -0.14010006189346313,
          0.10347990691661835,
          0.13206134736537933,
          0.04083099588751793,
          0.14479027688503265,
          0.07711385935544968,
          0.10148153454065323,
          0.1414012610912323,
          -0.10525666177272797,
          -0.012010842561721802,
          0.05751485750079155,
          -0.04097818210721016,
          -0.10859815031290054,
          -0.048070237040519714,
          -0.07589132338762283,
          -0.05369490385055542,
          -0.11662621796131134,
          -0.046180181205272675,
          0.08772005140781403,
          -0.06719350069761276,
          0.06521239131689072,
          -0.12590011954307556,
          -0.09646953642368317,
          0.01586749590933323,
          0.1417747288942337,
          -0.14138396084308624
        ],
        [
          0.06663778424263,
          0.0267753005027771,
          -0.1250932812690735,
          -0.11115606874227524,
          0.07713240385055542,
          -0.07649591565132141,
          0.10728634893894196,
          -0.10586999356746674,
          0.11565238982439041,
          -0.07810208946466446,
          0.06201602891087532,
          0.04580610617995262,
          -0.12012956291437149,
          -0.08028819411993027,
          -0.03708430007100105,
          0.0004857452295254916,
          0.07560819387435913,
          -0.06293096393346786,
          0.022524572908878326,
          -0.08304573595523834,
          -0.07277055084705353,
          0.09990477561950684,
          -0.04192959889769554,
          -0.13414551317691803,
          0.0064307041466236115,
          -0.021824242547154427,
          0.0435224324464798,
          -0.07809599488973618,
          0.006593933328986168,
          -0.07552704960107803,
          -0.09252382814884186,
          0.03499601408839226,
          0.04731902480125427,
          0.02832234464585781,
          0.14141391217708588,
          0.01419193297624588,
          0.013018541969358921,
          -0.02001476287841797,
          -0.14801055192947388,
          0.059877388179302216,
          0.11934418976306915,
          0.01517054159194231,
          -0.11939687281847,
          0.13746055960655212,
          0.034296758472919464,
          0.1107332855463028,
          0.06649115681648254,
          0.024148067459464073,
          -0.04510616138577461,
          0.03143034130334854,
          0.049259524792432785,
          -0.009281153790652752,
          -0.09778637439012527,
          -0.08045666664838791,
          -0.1403174251317978,
          -0.059876203536987305,
          -0.024680186063051224,
          0.12521061301231384,
          -0.08189203590154648,
          -0.15063947439193726,
          0.08391141146421432,
          0.13199767470359802,
          -0.11940886825323105,
          -0.0015289403963834047
        ],
        [
          0.04867272824048996,
          0.09869682043790817,
          -0.02748251147568226,
          0.06972771137952805,
          0.11762738227844238,
          0.0895889550447464,
          0.074590764939785,
          0.09310268610715866,
          -0.13718749582767487,
          0.0325511172413826,
          0.11806100606918335,
          -0.12129837274551392,
          -0.13419678807258606,
          -0.12642399966716766,
          0.047005120664834976,
          0.14208051562309265,
          -0.013885896652936935,
          -0.06085829809308052,
          0.009060090407729149,
          -0.12623028457164764,
          0.026501676067709923,
          -0.10065095126628876,
          -0.10304297506809235,
          -0.11167612671852112,
          -0.043342284858226776,
          0.09977160394191742,
          0.031094921752810478,
          0.10654260218143463,
          -0.14769840240478516,
          -0.12467750906944275,
          0.09380245208740234,
          0.12059349566698074,
          0.1300116628408432,
          -0.14218129217624664,
          0.06857398897409439,
          -0.1509607583284378,
          -0.045276395976543427,
          0.00310131604783237,
          0.07159066200256348,
          -0.0467672124505043,
          -0.13237430155277252,
          -0.14876659214496613,
          -0.061393700540065765,
          0.11667052656412125,
          0.06642474979162216,
          0.07572498917579651,
          -0.12381548434495926,
          -0.13755932450294495,
          0.14165061712265015,
          0.09999935328960419,
          -0.06598629057407379,
          0.012872832827270031,
          0.1102917417883873,
          0.1378098726272583,
          -0.123183973133564,
          -0.07587708532810211,
          0.059492092579603195,
          0.11696964502334595,
          0.02663441002368927,
          -0.009448106400668621,
          0.005930084735155106,
          0.1393151432275772,
          -0.12019789218902588,
          0.06974493712186813
        ],
        [
          -0.10960553586483002,
          0.01455598697066307,
          -0.1446194052696228,
          0.09915520995855331,
          -0.08529838174581528,
          0.010169734247028828,
          -0.09601330757141113,
          0.014020162634551525,
          -0.07455048710107803,
          -0.07829435169696808,
          -0.0663449615240097,
          0.09498903155326843,
          0.02139469049870968,
          -0.039432235062122345,
          0.1303912103176117,
          0.03000153973698616,
          -0.04954305663704872,
          -0.006922563072293997,
          -0.059858206659555435,
          -0.06073299050331116,
          -0.04780726879835129,
          0.03648412972688675,
          -0.13631880283355713,
          -0.11922459304332733,
          0.10276838392019272,
          -0.03666619211435318,
          -0.005652463994920254,
          0.053468018770217896,
          -0.06847751885652542,
          0.10724785923957825,
          -0.034654226154088974,
          0.009328768588602543,
          -0.10617706924676895,
          0.06225360929965973,
          -0.10881326347589493,
          0.09310640394687653,
          -0.021674226969480515,
          -0.05591391772031784,
          -0.05124814808368683,
          0.058408599346876144,
          0.1499423235654831,
          0.0415927916765213,
          0.09383738040924072,
          -0.12904636561870575,
          -0.03612938150763512,
          -0.08669977635145187,
          -0.1098787784576416,
          0.02628658153116703,
          -0.04786035791039467,
          0.03465546667575836,
          -0.06087293475866318,
          -0.13959580659866333,
          -0.07878783345222473,
          -0.1471538543701172,
          0.03315608948469162,
          -0.1149318739771843,
          0.11768285930156708,
          0.06625930964946747,
          -0.08589817583560944,
          -0.0437510721385479,
          -0.13716378808021545,
          0.11029262095689774,
          -0.06846054643392563,
          -0.03216089308261871
        ],
        [
          0.011309526860713959,
          0.07431905716657639,
          -0.045640524476766586,
          0.07505785673856735,
          0.07873770594596863,
          -0.0189158134162426,
          0.1015079990029335,
          -0.13424988090991974,
          -0.08336144685745239,
          -0.012014164589345455,
          -0.015587502159178257,
          0.05431290715932846,
          0.11057290434837341,
          -0.11054573208093643,
          0.08033544570207596,
          0.03673302382230759,
          0.12714417278766632,
          0.08171144872903824,
          -0.033276159316301346,
          -0.02170853689312935,
          -0.1018780916929245,
          0.03377958759665489,
          0.11980251967906952,
          0.05268023535609245,
          0.12378285080194473,
          0.0611460842192173,
          0.02945750206708908,
          -0.033143624663352966,
          -0.1322614699602127,
          -0.02869882620871067,
          0.12995584309101105,
          0.1331138163805008,
          -0.05179471895098686,
          0.1256566047668457,
          0.12619882822036743,
          -0.13063094019889832,
          -0.15101376175880432,
          -0.07624946534633636,
          -0.015491414815187454,
          0.05930338799953461,
          0.0640999898314476,
          0.09698600322008133,
          -0.07497478276491165,
          0.10239730775356293,
          0.03490322828292847,
          -0.10868415981531143,
          -0.11314244568347931,
          0.054425548762083054,
          0.14254295825958252,
          -0.10164269804954529,
          0.018140219151973724,
          -0.1449308544397354,
